<?xml version="1.0"?>
<opencv_storage>
<cascade>
  <stageType>BOOST</stageType>
  <featureType>HAAR</featureType>
  <height>24</height>
  <width>24</width>
  <stageParams>
    <boostType>GAB</boostType>
    <minHitRate>9.9900001287460327e-01</minHitRate>
    <maxFalseAlarm>1.5000000596046448e-01</maxFalseAlarm>
    <weightTrimRate>9.4999999999999996e-01</weightTrimRate>
    <maxDepth>1</maxDepth>
    <maxWeakCount>100</maxWeakCount></stageParams>
  <featureParams>
    <maxCatCount>0</maxCatCount>
    <featSize>1</featSize>
    <mode>BASIC</mode></featureParams>
  <stageNum>21</stageNum>
  <stages>
    <!-- stage 0 -->
    <_>
      <maxWeakCount>19</maxWeakCount>
      <stageThreshold>-7.7583700418472290e-01</stageThreshold>
      <weakClassifiers>
        <_>
          <internalNodes>
            0 -1 1375 2.2458047606050968e-03</internalNodes>
          <leafValues>
            -4.3340381979942322e-01 8.4114456176757812e-01</leafValues></_>
        <_>
          <internalNodes>
            0 -1 46 -2.7250207960605621e-02</internalNodes>
          <leafValues>
            7.8560668230056763e-01 -4.5289328694343567e-01</leafValues></_>
        <_>
          <internalNodes>
            0 -1 641 3.8992002606391907e-02</internalNodes>
          <leafValues>
            -6.5213131904602051e-01 5.6681644916534424e-01</leafValues></_>
        <_>
          <internalNodes>
            0 -1 952 -2.2873435169458389e-02</internalNodes>
          <leafValues>
            5.5423653125762939e-01 -6.5479183197021484e-01</leafValues></_>
        <_>
          <internalNodes>
            0 -1 1301 2.6489179581403732e-02</internalNodes>
          <leafValues>
            -4.1083836555480957e-01 5.1404583454132080e-01</leafValues></_>
        <_>
          <internalNodes>
            0 -1 271 3.1502248020842671e-05</internalNodes>
          <leafValues>
            -6.9043368101119995e-01 2.8133019804954529e-01</leafValues></_>
        <_>
          <internalNodes>
            0 -1 1128 1.9246958254370838e-04</internalNodes>
          <leafValues>
            -3.3781445026397705e-01 4.5759341120719910e-01</leafValues></_>
        <_>
          <internalNodes>
            0 -1 112 -1.7118126153945923e-02</internalNodes>
          <leafValues>
            3.5320389270782471e-01 -4.6143722534179688e-01</leafValues></_>
        <_>
          <internalNodes>
            0 -1 645 1.8756568431854248e-02</internalNodes>
          <leafValues>
            -4.6071118116378784e-01 3.5281872749328613e-01</leafValues></_>
        <_>
          <internalNodes>
            0 -1 536 -7.1430634707212448e-03</internalNodes>
          <leafValues>
            7.2677534818649292e-01 -2.0987892150878906e-01</leafValues></_>
        <_>
          <internalNodes>
            0 -1 829 3.0911825597286224e-02</internalNodes>
          <leafValues>
            -2.0577953755855560e-01 6.8898582458496094e-01</leafValues></_>
        <_>
          <internalNodes>
            0 -1 1171 1.6411811113357544e-02</internalNodes>
          <leafValues>
            -3.0333799123764038e-01 4.5731636881828308e-01</leafValues></_>
        <_>
          <internalNodes>
            0 -1 843 1.9325612811371684e-04</internalNodes>
          <leafValues>
            -3.0778285861015320e-01 5.0523787736892700e-01</leafValues></_>
        <_>
          <internalNodes>
            0 -1 1188 -9.1850552707910538e-03</internalNodes>
          <leafValues>
            4.0347054600715637e-01 -3.4230890870094299e-01</leafValues></_>
        <_>
          <internalNodes>
            0 -1 1359 -8.0875310231931508e-05</internalNodes>
          <leafValues>
            -6.4854443073272705e-01 2.2284115850925446e-01</leafValues></_>
        <_>
          <internalNodes>
            0 -1 65 -3.6526873707771301e-02</internalNodes>
          <leafValues>
            6.4733600616455078e-01 -2.2722932696342468e-01</leafValues></_>
        <_>
          <internalNodes>
            0 -1 663 -5.0827767699956894e-03</internalNodes>
          <leafValues>
            7.0188289880752563e-01 -1.7773261666297913e-01</leafValues></_>
        <_>
          <internalNodes>
            0 -1 1429 7.9866076703183353e-05</internalNodes>
          <leafValues>
            -4.9937522411346436e-01 2.6165780425071716e-01</leafValues></_>
        <_>
          <internalNodes>
            0 -1 781 1.0078394785523415e-02</internalNodes>
          <leafValues>
            -2.5663793087005615e-01 5.1484191417694092e-01</leafValues></_></weakClassifiers></_>
    <!-- stage 1 -->
    <_>
      <maxWeakCount>37</maxWeakCount>
      <stageThreshold>-6.4337021112442017e-01</stageThreshold>
      <weakClassifiers>
        <_>
          <internalNodes>
            0 -1 75 -9.2317415401339531e-03</internalNodes>
          <leafValues>
            7.4446016550064087e-01 -2.0844326913356781e-01</leafValues></_>
        <_>
          <internalNodes>
            0 -1 333 6.3251428306102753e-02</internalNodes>
          <leafValues>
            -4.9231123924255371e-01 4.4368186593055725e-01</leafValues></_>
        <_>
          <internalNodes>
            0 -1 288 -1.5775388106703758e-02</internalNodes>
          <leafValues>
            4.0963995456695557e-01 -3.9386391639709473e-01</leafValues></_>
        <_>
          <internalNodes>
            0 -1 1374 7.4876388534903526e-03</internalNodes>
          <leafValues>
            -4.8700800538063049e-01 2.6112791895866394e-01</leafValues></_>
        <_>
          <internalNodes>
            0 -1 297 -3.1986236572265625e-03</internalNodes>
          <leafValues>
            5.2024769783020020e-01 -2.2683045268058777e-01</leafValues></_>
        <_>
          <internalNodes>
            0 -1 272 1.2328175362199545e-03</internalNodes>
          <leafValues>
            -5.5708259344100952e-01 1.8387654423713684e-01</leafValues></_>
        <_>
          <internalNodes>
            0 -1 1315 1.2940737651661038e-03</internalNodes>
          <leafValues>
            -2.4423305690288544e-01 4.4301408529281616e-01</leafValues></_>
        <_>
          <internalNodes>
            0 -1 122 -4.6770637854933739e-03</internalNodes>
          <leafValues>
            1.9806481897830963e-01 -6.4794546365737915e-01</leafValues></_>
        <_>
          <internalNodes>
            0 -1 1231 1.2397809186950326e-03</internalNodes>
          <leafValues>
            -2.5399851799011230e-01 5.1429873704910278e-01</leafValues></_>
        <_>
          <internalNodes>
            0 -1 1065 1.1572118848562241e-02</internalNodes>
          <leafValues>
            -1.8545827269554138e-01 5.6805783510208130e-01</leafValues></_>
        <_>
          <internalNodes>
            0 -1 39 -1.3864770880900323e-04</internalNodes>
          <leafValues>
            -4.8153945803642273e-01 2.2617678344249725e-01</leafValues></_>
        <_>
          <internalNodes>
            0 -1 701 2.7040857821702957e-04</internalNodes>
          <leafValues>
            -2.2833789885044098e-01 4.9080488085746765e-01</leafValues></_>
        <_>
          <internalNodes>
            0 -1 1306 2.8026964515447617e-02</internalNodes>
          <leafValues>
            -2.1352723240852356e-01 5.0471872091293335e-01</leafValues></_>
        <_>
          <internalNodes>
            0 -1 1441 -3.3988506766036153e-04</internalNodes>
          <leafValues>
            -5.8372098207473755e-01 1.7748951911926270e-01</leafValues></_>
        <_>
          <internalNodes>
            0 -1 1008 -5.5539782624691725e-04</internalNodes>
          <leafValues>
            4.9434959888458252e-01 -2.3552285134792328e-01</leafValues></_>
        <_>
          <internalNodes>
            0 -1 983 1.9258243264630437e-04</internalNodes>
          <leafValues>
            -1.8007612228393555e-01 5.0777256488800049e-01</leafValues></_>
        <_>
          <internalNodes>
            0 -1 478 1.4725727960467339e-03</internalNodes>
          <leafValues>
            -1.8547601997852325e-01 5.1203012466430664e-01</leafValues></_>
        <_>
          <internalNodes>
            0 -1 955 -3.1851284205913544e-02</internalNodes>
          <leafValues>
            3.0336606502532959e-01 -3.0558872222900391e-01</leafValues></_>
        <_>
          <internalNodes>
            0 -1 852 2.3625977337360382e-04</internalNodes>
          <leafValues>
            -2.1887348592281342e-01 5.2239418029785156e-01</leafValues></_>
        <_>
          <internalNodes>
            0 -1 1353 3.5222219303250313e-03</internalNodes>
          <leafValues>
            -2.4278110265731812e-01 3.7382078170776367e-01</leafValues></_>
        <_>
          <internalNodes>
            0 -1 936 3.9043562719598413e-04</internalNodes>
          <leafValues>
            -1.5806847810745239e-01 5.3883880376815796e-01</leafValues></_>
        <_>
          <internalNodes>
            0 -1 824 -1.2195647694170475e-02</internalNodes>
          <leafValues>
            -8.7360894680023193e-01 1.0969512164592743e-01</leafValues></_>
        <_>
          <internalNodes>
            0 -1 89 -1.5236882492899895e-02</internalNodes>
          <leafValues>
            1.6109855473041534e-01 -4.9655923247337341e-01</leafValues></_>
        <_>
          <internalNodes>
            0 -1 790 -4.4351816177368164e-03</internalNodes>
          <leafValues>
            5.2164769172668457e-01 -1.5774632990360260e-01</leafValues></_>
        <_>
          <internalNodes>
            0 -1 231 -9.1250449419021606e-02</internalNodes>
          <leafValues>
            -6.5556102991104126e-01 1.3246099650859833e-01</leafValues></_>
        <_>
          <internalNodes>
            0 -1 444 -2.7630454860627651e-03</internalNodes>
          <leafValues>
            4.3345770239830017e-01 -2.0258527994155884e-01</leafValues></_>
        <_>
          <internalNodes>
            0 -1 221 -1.1171502061188221e-02</internalNodes>
          <leafValues>
            6.2010937929153442e-01 -1.3396798074245453e-01</leafValues></_>
        <_>
          <internalNodes>
            0 -1 280 -8.1740174209699035e-04</internalNodes>
          <leafValues>
            4.3237811326980591e-01 -1.6869240999221802e-01</leafValues></_>
        <_>
          <internalNodes>
            0 -1 861 5.8807688765227795e-04</internalNodes>
          <leafValues>
            -1.6675968468189240e-01 5.0107586383819580e-01</leafValues></_>
        <_>
          <internalNodes>
            0 -1 1368 4.9220971763134003e-02</internalNodes>
          <leafValues>
            -1.2158423662185669e-01 6.4118790626525879e-01</leafValues></_>
        <_>
          <internalNodes>
            0 -1 848 8.6405668407678604e-03</internalNodes>
          <leafValues>
            -1.4898349344730377e-01 5.1631885766983032e-01</leafValues></_>
        <_>
          <internalNodes>
            0 -1 1123 1.8635645392350852e-04</internalNodes>
          <leafValues>
            -1.7743094265460968e-01 4.4173803925514221e-01</leafValues></_>
        <_>
          <internalNodes>
            0 -1 1121 -2.0285472273826599e-03</internalNodes>
          <leafValues>
            5.6859028339385986e-01 -1.4905522763729095e-01</leafValues></_>
        <_>
          <internalNodes>
            0 -1 1447 -1.7300620675086975e-04</internalNodes>
          <leafValues>
            -5.6629073619842529e-01 1.6619980335235596e-01</leafValues></_>
        <_>
          <internalNodes>
            0 -1 388 2.0350496470928192e-01</internalNodes>
          <leafValues>
            -1.3810852169990540e-01 6.3105952739715576e-01</leafValues></_>
        <_>
          <internalNodes>
            0 -1 565 2.1644317894242704e-04</internalNodes>
          <leafValues>
            -1.7538927495479584e-01 5.2149605751037598e-01</leafValues></_>
        <_>
          <internalNodes>
            0 -1 925 -6.6589992493391037e-03</internalNodes>
          <leafValues>
            -3.4650892019271851e-01 2.4295194447040558e-01</leafValues></_></weakClassifiers></_>
    <!-- stage 2 -->
    <_>
      <maxWeakCount>37</maxWeakCount>
      <stageThreshold>-3.6615508794784546e-01</stageThreshold>
      <weakClassifiers>
        <_>
          <internalNodes>
            0 -1 33 -1.5518229454755783e-02</internalNodes>
          <leafValues>
            7.5071090459823608e-01 -2.1538461744785309e-01</leafValues></_>
        <_>
          <internalNodes>
            0 -1 1403 -1.3181097805500031e-02</internalNodes>
          <leafValues>
            -7.8540444374084473e-01 3.1005093455314636e-01</leafValues></_>
        <_>
          <internalNodes>
            0 -1 290 -3.6883737891912460e-02</internalNodes>
          <leafValues>
            3.4169799089431763e-01 -3.4915798902511597e-01</leafValues></_>
        <_>
          <internalNodes>
            0 -1 597 3.3880067057907581e-03</internalNodes>
          <leafValues>
            -3.3178865909576416e-01 3.1770423054695129e-01</leafValues></_>
        <_>
          <internalNodes>
            0 -1 903 -2.5026204530149698e-03</internalNodes>
          <leafValues>
            3.9020153880119324e-01 -2.5932338833808899e-01</leafValues></_>
        <_>
          <internalNodes>
            0 -1 395 5.2010254003107548e-03</internalNodes>
          <leafValues>
            -2.0406134426593781e-01 5.7079839706420898e-01</leafValues></_>
        <_>
          <internalNodes>
            0 -1 1309 1.5996621921658516e-02</internalNodes>
          <leafValues>
            -4.1044515371322632e-01 2.5598427653312683e-01</leafValues></_>
        <_>
          <internalNodes>
            0 -1 307 -8.6394269019365311e-03</internalNodes>
          <leafValues>
            5.4333436489105225e-01 -1.8649879097938538e-01</leafValues></_>
        <_>
          <internalNodes>
            0 -1 405 6.2167888972908258e-04</internalNodes>
          <leafValues>
            -1.3582785427570343e-01 6.8454086780548096e-01</leafValues></_>
        <_>
          <internalNodes>
            0 -1 28 -3.5174321965314448e-04</internalNodes>
          <leafValues>
            -4.7657462954521179e-01 2.2113756835460663e-01</leafValues></_>
        <_>
          <internalNodes>
            0 -1 337 6.5026409924030304e-02</internalNodes>
          <leafValues>
            -4.5668947696685791e-01 2.0068272948265076e-01</leafValues></_>
        <_>
          <internalNodes>
            0 -1 638 3.2485247356817126e-04</internalNodes>
          <leafValues>
            -2.0107328891754150e-01 4.8599919676780701e-01</leafValues></_>
        <_>
          <internalNodes>
            0 -1 783 -7.1985065005719662e-04</internalNodes>
          <leafValues>
            5.3189975023269653e-01 -1.5910033881664276e-01</leafValues></_>
        <_>
          <internalNodes>
            0 -1 778 1.2241587974131107e-03</internalNodes>
          <leafValues>
            -2.0936706662178040e-01 5.2397936582565308e-01</leafValues></_>
        <_>
          <internalNodes>
            0 -1 558 6.1883414164185524e-03</internalNodes>
          <leafValues>
            -1.3122314214706421e-01 6.7330962419509888e-01</leafValues></_>
        <_>
          <internalNodes>
            0 -1 1050 -7.4601378291845322e-03</internalNodes>
          <leafValues>
            5.2217030525207520e-01 -1.6769176721572876e-01</leafValues></_>
        <_>
          <internalNodes>
            0 -1 611 -1.4110438525676727e-02</internalNodes>
          <leafValues>
            6.8977779150009155e-01 -1.1135172843933105e-01</leafValues></_>
        <_>
          <internalNodes>
            0 -1 1185 -1.3340485747903585e-03</internalNodes>
          <leafValues>
            -4.5805969834327698e-01 1.7909482121467590e-01</leafValues></_>
        <_>
          <internalNodes>
            0 -1 1170 -4.5474950456991792e-04</internalNodes>
          <leafValues>
            4.5190116763114929e-01 -1.8494327366352081e-01</leafValues></_>
        <_>
          <internalNodes>
            0 -1 919 5.8088768273591995e-03</internalNodes>
          <leafValues>
            -1.4910417795181274e-01 5.4285061359405518e-01</leafValues></_>
        <_>
          <internalNodes>
            0 -1 79 3.2529836893081665e-01</internalNodes>
          <leafValues>
            1.2620106339454651e-01 -7.5757890939712524e-01</leafValues></_>
        <_>
          <internalNodes>
            0 -1 1238 -3.5969726741313934e-04</internalNodes>
          <leafValues>
            5.3250741958618164e-01 -1.7083777487277985e-01</leafValues></_>
        <_>
          <internalNodes>
            0 -1 755 -1.0564403608441353e-02</internalNodes>
          <leafValues>
            3.8461318612098694e-01 -2.2004784643650055e-01</leafValues></_>
        <_>
          <internalNodes>
            0 -1 305 -7.5001129880547523e-03</internalNodes>
          <leafValues>
            5.9168720245361328e-01 -1.4067511260509491e-01</leafValues></_>
        <_>
          <internalNodes>
            0 -1 937 2.3878675419837236e-03</internalNodes>
          <leafValues>
            -1.3459694385528564e-01 6.1556720733642578e-01</leafValues></_>
        <_>
          <internalNodes>
            0 -1 1163 -7.4100017081946135e-04</internalNodes>
          <leafValues>
            5.2580463886260986e-01 -1.3124537467956543e-01</leafValues></_>
        <_>
          <internalNodes>
            0 -1 1107 8.1117432564496994e-03</internalNodes>
          <leafValues>
            -1.9490373134613037e-01 4.1374576091766357e-01</leafValues></_>
        <_>
          <internalNodes>
            0 -1 1423 4.6463259495794773e-03</internalNodes>
          <leafValues>
            -2.6621490716934204e-01 3.2294028997421265e-01</leafValues></_>
        <_>
          <internalNodes>
            0 -1 1235 1.0376706486567855e-03</internalNodes>
          <leafValues>
            -1.5458227694034576e-01 4.8606073856353760e-01</leafValues></_>
        <_>
          <internalNodes>
            0 -1 1173 -1.2345765717327595e-03</internalNodes>
          <leafValues>
            5.2125197649002075e-01 -1.3136172294616699e-01</leafValues></_>
        <_>
          <internalNodes>
            0 -1 631 -1.6575159970670938e-03</internalNodes>
          <leafValues>
            3.9506641030311584e-01 -1.6951444745063782e-01</leafValues></_>
        <_>
          <internalNodes>
            0 -1 105 -1.6228519380092621e-02</internalNodes>
          <leafValues>
            3.3735671639442444e-01 -2.2387623786926270e-01</leafValues></_>
        <_>
          <internalNodes>
            0 -1 1383 1.4570478815585375e-03</internalNodes>
          <leafValues>
            -1.5808647871017456e-01 4.8584824800491333e-01</leafValues></_>
        <_>
          <internalNodes>
            0 -1 1404 1.2344177230261266e-04</internalNodes>
          <leafValues>
            1.8954141438007355e-01 -4.7449100017547607e-01</leafValues></_>
        <_>
          <internalNodes>
            0 -1 604 -1.3840561732649803e-02</internalNodes>
          <leafValues>
            6.3865351676940918e-01 -1.2783391773700714e-01</leafValues></_>
        <_>
          <internalNodes>
            0 -1 792 -2.5680946419015527e-04</internalNodes>
          <leafValues>
            4.1163101792335510e-01 -1.7527104914188385e-01</leafValues></_>
        <_>
          <internalNodes>
            0 -1 1054 -6.8677164381369948e-04</internalNodes>
          <leafValues>
            3.9313143491744995e-01 -1.8901531398296356e-01</leafValues></_></weakClassifiers></_>
    <!-- stage 3 -->
    <_>
      <maxWeakCount>53</maxWeakCount>
      <stageThreshold>-4.4312971830368042e-01</stageThreshold>
      <weakClassifiers>
        <_>
          <internalNodes>
            0 -1 288 -8.2120206207036972e-03</internalNodes>
          <leafValues>
            7.5597089529037476e-01 7.6655052602291107e-02</leafValues></_>
        <_>
          <internalNodes>
            0 -1 709 -8.8423471897840500e-03</internalNodes>
          <leafValues>
            -3.7976026535034180e-02 7.3313194513320923e-01</leafValues></_>
        <_>
          <internalNodes>
            0 -1 71 7.5619532726705074e-03</internalNodes>
          <leafValues>
            1.7908997833728790e-01 -5.9540009498596191e-01</leafValues></_>
        <_>
          <internalNodes>
            0 -1 127 2.9858628287911415e-02</internalNodes>
          <leafValues>
            -4.5352718234062195e-01 1.7485605180263519e-01</leafValues></_>
        <_>
          <internalNodes>
            0 -1 1436 -1.5819235704839230e-04</internalNodes>
          <leafValues>
            -5.5703985691070557e-01 1.3970017433166504e-01</leafValues></_>
        <_>
          <internalNodes>
            0 -1 113 7.5849005952477455e-03</internalNodes>
          <leafValues>
            1.4084963500499725e-01 -5.2808541059494019e-01</leafValues></_>
        <_>
          <internalNodes>
            0 -1 492 6.9935643114149570e-04</internalNodes>
          <leafValues>
            -2.0473301410675049e-01 5.2335381507873535e-01</leafValues></_>
        <_>
          <internalNodes>
            0 -1 182 2.0215862896293402e-03</internalNodes>
          <leafValues>
            -4.0520665049552917e-01 2.4281220138072968e-01</leafValues></_>
        <_>
          <internalNodes>
            0 -1 1392 8.7658073753118515e-03</internalNodes>
          <leafValues>
            -1.9348278641700745e-01 4.3187445402145386e-01</leafValues></_>
        <_>
          <internalNodes>
            0 -1 371 -8.8039953261613846e-03</internalNodes>
          <leafValues>
            4.4747638702392578e-01 -1.6441871225833893e-01</leafValues></_>
        <_>
          <internalNodes>
            0 -1 533 -7.0744499564170837e-02</internalNodes>
          <leafValues>
            -7.4603617191314697e-01 1.1994756758213043e-01</leafValues></_>
        <_>
          <internalNodes>
            0 -1 165 3.9227388333529234e-04</internalNodes>
          <leafValues>
            1.1725762486457825e-01 -5.7245981693267822e-01</leafValues></_>
        <_>
          <internalNodes>
            0 -1 816 -1.2181377038359642e-02</internalNodes>
          <leafValues>
            -6.1585807800292969e-01 1.2020445615053177e-01</leafValues></_>
        <_>
          <internalNodes>
            0 -1 857 -1.1253014206886292e-02</internalNodes>
          <leafValues>
            4.9222505092620850e-01 -1.8156860768795013e-01</leafValues></_>
        <_>
          <internalNodes>
            0 -1 719 1.8377877771854401e-02</internalNodes>
          <leafValues>
            -1.4417944848537445e-01 4.7641229629516602e-01</leafValues></_>
        <_>
          <internalNodes>
            0 -1 921 -1.7036310164257884e-03</internalNodes>
          <leafValues>
            5.1476228237152100e-01 -1.4720499515533447e-01</leafValues></_>
        <_>
          <internalNodes>
            0 -1 930 1.0913526639342308e-02</internalNodes>
          <leafValues>
            -1.3134351372718811e-01 4.8632067441940308e-01</leafValues></_>
        <_>
          <internalNodes>
            0 -1 11 -4.9129903316497803e-02</internalNodes>
          <leafValues>
            3.1032162904739380e-01 -2.6295429468154907e-01</leafValues></_>
        <_>
          <internalNodes>
            0 -1 729 1.1959990486502647e-02</internalNodes>
          <leafValues>
            -4.1357687115669250e-01 1.6802904009819031e-01</leafValues></_>
        <_>
          <internalNodes>
            0 -1 776 -1.6960140783339739e-04</internalNodes>
          <leafValues>
            3.7170201539993286e-01 -1.9380223751068115e-01</leafValues></_>
        <_>
          <internalNodes>
            0 -1 228 -9.7599074244499207e-02</internalNodes>
          <leafValues>
            -5.5611163377761841e-01 1.1789243668317795e-01</leafValues></_>
        <_>
          <internalNodes>
            0 -1 445 -1.3958010822534561e-02</internalNodes>
          <leafValues>
            -5.6919950246810913e-01 1.0619076341390610e-01</leafValues></_>
        <_>
          <internalNodes>
            0 -1 304 -1.0727390646934509e-02</internalNodes>
          <leafValues>
            2.8064933419227600e-01 -2.7383425831794739e-01</leafValues></_>
        <_>
          <internalNodes>
            0 -1 1210 6.6185847390443087e-04</internalNodes>
          <leafValues>
            -1.2473018467426300e-01 4.8580577969551086e-01</leafValues></_>
        <_>
          <internalNodes>
            0 -1 1350 3.3358554355800152e-03</internalNodes>
          <leafValues>
            -1.3723516464233398e-01 3.8971644639968872e-01</leafValues></_>
        <_>
          <internalNodes>
            0 -1 636 -8.4674777463078499e-04</internalNodes>
          <leafValues>
            3.0449303984642029e-01 -1.8020109832286835e-01</leafValues></_>
        <_>
          <internalNodes>
            0 -1 1162 3.2946080318652093e-04</internalNodes>
          <leafValues>
            -1.4925697445869446e-01 4.1499415040016174e-01</leafValues></_>
        <_>
          <internalNodes>
            0 -1 1421 1.1604471132159233e-02</internalNodes>
          <leafValues>
            -1.1712651699781418e-01 4.9592465162277222e-01</leafValues></_>
        <_>
          <internalNodes>
            0 -1 1345 4.5442330883815885e-04</internalNodes>
          <leafValues>
            -1.4017598330974579e-01 4.0664264559745789e-01</leafValues></_>
        <_>
          <internalNodes>
            0 -1 1085 6.9982046261429787e-03</internalNodes>
          <leafValues>
            -1.0855002701282501e-01 4.8704376816749573e-01</leafValues></_>
        <_>
          <internalNodes>
            0 -1 1492 6.3822313677519560e-04</internalNodes>
          <leafValues>
            1.4728195965290070e-01 -4.1638374328613281e-01</leafValues></_>
        <_>
          <internalNodes>
            0 -1 1082 2.7131428942084312e-03</internalNodes>
          <leafValues>
            -1.0252748429775238e-01 5.8811265230178833e-01</leafValues></_>
        <_>
          <internalNodes>
            0 -1 1123 3.6175531568005681e-04</internalNodes>
          <leafValues>
            -1.4531476795673370e-01 3.6990979313850403e-01</leafValues></_>
        <_>
          <internalNodes>
            0 -1 1206 -1.2584712821990252e-03</internalNodes>
          <leafValues>
            3.8611850142478943e-01 -1.4038971066474915e-01</leafValues></_>
        <_>
          <internalNodes>
            0 -1 104 8.9890719391405582e-04</internalNodes>
          <leafValues>
            1.2217062711715698e-01 -4.7094619274139404e-01</leafValues></_>
        <_>
          <internalNodes>
            0 -1 1013 4.7995150089263916e-04</internalNodes>
          <leafValues>
            -1.4272834360599518e-01 4.0495976805686951e-01</leafValues></_>
        <_>
          <internalNodes>
            0 -1 1002 -4.8330277204513550e-03</internalNodes>
          <leafValues>
            5.5127990245819092e-01 -1.0140761733055115e-01</leafValues></_>
        <_>
          <internalNodes>
            0 -1 319 -4.2457821965217590e-01</internalNodes>
          <leafValues>
            -1.4175790548324585e-01 3.8647177815437317e-01</leafValues></_>
        <_>
          <internalNodes>
            0 -1 147 -4.3694945052266121e-03</internalNodes>
          <leafValues>
            -6.9466018676757812e-01 8.8291205465793610e-02</leafValues></_>
        <_>
          <internalNodes>
            0 -1 886 -1.3073261361569166e-03</internalNodes>
          <leafValues>
            4.2911812663078308e-01 -1.4409449696540833e-01</leafValues></_>
        <_>
          <internalNodes>
            0 -1 1481 -4.3624746613204479e-03</internalNodes>
          <leafValues>
            -3.9985555410385132e-01 1.4141012728214264e-01</leafValues></_>
        <_>
          <internalNodes>
            0 -1 373 -9.5411119982600212e-03</internalNodes>
          <leafValues>
            4.1981449723243713e-01 -1.3372252881526947e-01</leafValues></_>
        <_>
          <internalNodes>
            0 -1 909 -2.2208767768461257e-04</internalNodes>
          <leafValues>
            2.4490080773830414e-01 -2.3639400303363800e-01</leafValues></_>
        <_>
          <internalNodes>
            0 -1 876 9.3387272208929062e-03</internalNodes>
          <leafValues>
            -1.1591978371143341e-01 4.9232128262519836e-01</leafValues></_>
        <_>
          <internalNodes>
            0 -1 213 -4.1676461696624756e-03</internalNodes>
          <leafValues>
            3.5632398724555969e-01 -1.4442235231399536e-01</leafValues></_>
        <_>
          <internalNodes>
            0 -1 1057 -4.2716163443401456e-04</internalNodes>
          <leafValues>
            2.7694684267044067e-01 -2.0461259782314301e-01</leafValues></_>
        <_>
          <internalNodes>
            0 -1 1281 -1.9751796498894691e-03</internalNodes>
          <leafValues>
            3.8978284597396851e-01 -1.5186549723148346e-01</leafValues></_>
        <_>
          <internalNodes>
            0 -1 1155 -5.6558521464467049e-04</internalNodes>
          <leafValues>
            3.8462030887603760e-01 -1.5359890460968018e-01</leafValues></_>
        <_>
          <internalNodes>
            0 -1 1218 -2.2792399395257235e-03</internalNodes>
          <leafValues>
            -3.9841520786285400e-01 1.4614304900169373e-01</leafValues></_>
        <_>
          <internalNodes>
            0 -1 1296 3.8251972291618586e-03</internalNodes>
          <leafValues>
            -1.0668784379959106e-01 6.4967644214630127e-01</leafValues></_>
        <_>
          <internalNodes>
            0 -1 821 1.3834016397595406e-02</internalNodes>
          <leafValues>
            1.0458412766456604e-01 -6.3351255655288696e-01</leafValues></_>
        <_>
          <internalNodes>
            0 -1 581 -3.6402428522706032e-03</internalNodes>
          <leafValues>
            4.3606302142143250e-01 -1.2418184429407120e-01</leafValues></_>
        <_>
          <internalNodes>
            0 -1 1427 -1.5602592611685395e-04</internalNodes>
          <leafValues>
            -4.2113512754440308e-01 1.2524384260177612e-01</leafValues></_></weakClassifiers></_>
    <!-- stage 4 -->
    <_>
      <maxWeakCount>62</maxWeakCount>
      <stageThreshold>-3.9908879995346069e-01</stageThreshold>
      <weakClassifiers>
        <_>
          <internalNodes>
            0 -1 27 -4.1389670222997665e-02</internalNodes>
          <leafValues>
            7.4495911598205566e-01 2.0000000298023224e-01</leafValues></_>
        <_>
          <internalNodes>
            0 -1 332 2.2556915879249573e-02</internalNodes>
          <leafValues>
            -4.7633832693099976e-01 2.9417914152145386e-01</leafValues></_>
        <_>
          <internalNodes>
            0 -1 1299 4.8601642251014709e-02</internalNodes>
          <leafValues>
            -2.7081370353698730e-01 3.2769423723220825e-01</leafValues></_>
        <_>
          <internalNodes>
            0 -1 50 -5.6018480099737644e-03</internalNodes>
          <leafValues>
            1.8436886370182037e-01 -4.8701268434524536e-01</leafValues></_>
        <_>
          <internalNodes>
            0 -1 357 8.3365984028205276e-04</internalNodes>
          <leafValues>
            -5.5290073156356812e-01 1.3875798881053925e-01</leafValues></_>
        <_>
          <internalNodes>
            0 -1 1251 1.2283686373848468e-04</internalNodes>
          <leafValues>
            1.9869601726531982e-01 -4.1058224439620972e-01</leafValues></_>
        <_>
          <internalNodes>
            0 -1 47 -4.1443660855293274e-02</internalNodes>
          <leafValues>
            2.3284450173377991e-01 -3.0990028381347656e-01</leafValues></_>
        <_>
          <internalNodes>
            0 -1 1304 3.9167003706097603e-03</internalNodes>
          <leafValues>
            -1.8373824656009674e-01 4.5411500334739685e-01</leafValues></_>
        <_>
          <internalNodes>
            0 -1 62 -4.8891520127654076e-03</internalNodes>
          <leafValues>
            -4.6518626809120178e-01 1.6296337544918060e-01</leafValues></_>
        <_>
          <internalNodes>
            0 -1 358 -1.8271833658218384e-02</internalNodes>
          <leafValues>
            -7.0782148838043213e-01 7.2645075619220734e-02</leafValues></_>
        <_>
          <internalNodes>
            0 -1 401 1.3473325408995152e-02</internalNodes>
          <leafValues>
            -1.2716788053512573e-01 5.5987334251403809e-01</leafValues></_>
        <_>
          <internalNodes>
            0 -1 1031 -9.1483155265450478e-03</internalNodes>
          <leafValues>
            -4.2487323284149170e-01 1.6672784090042114e-01</leafValues></_>
        <_>
          <internalNodes>
            0 -1 945 -1.9329445785842836e-04</internalNodes>
          <leafValues>
            3.3551943302154541e-01 -1.7499373853206635e-01</leafValues></_>
        <_>
          <internalNodes>
            0 -1 1487 -1.5189722762443125e-04</internalNodes>
          <leafValues>
            -4.7301447391510010e-01 1.4566254615783691e-01</leafValues></_>
        <_>
          <internalNodes>
            0 -1 0 9.1856112703680992e-05</internalNodes>
          <leafValues>
            1.4527487754821777e-01 -3.4252044558525085e-01</leafValues></_>
        <_>
          <internalNodes>
            0 -1 1450 -2.0438923966139555e-03</internalNodes>
          <leafValues>
            -4.4373401999473572e-01 1.1879783123731613e-01</leafValues></_>
        <_>
          <internalNodes>
            0 -1 1014 1.7190405633300543e-03</internalNodes>
          <leafValues>
            -1.3786618411540985e-01 4.4912520051002502e-01</leafValues></_>
        <_>
          <internalNodes>
            0 -1 291 -2.6610160246491432e-02</internalNodes>
          <leafValues>
            3.0581566691398621e-01 -1.7991188168525696e-01</leafValues></_>
        <_>
          <internalNodes>
            0 -1 385 -8.6040273308753967e-03</internalNodes>
          <leafValues>
            7.0434355735778809e-01 -8.0349087715148926e-02</leafValues></_>
        <_>
          <internalNodes>
            0 -1 862 -5.2519212476909161e-04</internalNodes>
          <leafValues>
            3.5189342498779297e-01 -1.3699837028980255e-01</leafValues></_>
        <_>
          <internalNodes>
            0 -1 206 1.4770904183387756e-01</internalNodes>
          <leafValues>
            6.2482737004756927e-02 -8.5078954696655273e-01</leafValues></_>
        <_>
          <internalNodes>
            0 -1 168 1.0076034814119339e-03</internalNodes>
          <leafValues>
            9.6384815871715546e-02 -4.8205012083053589e-01</leafValues></_>
        <_>
          <internalNodes>
            0 -1 1282 -6.1935111880302429e-03</internalNodes>
          <leafValues>
            4.2988151311874390e-01 -1.2431596219539642e-01</leafValues></_>
        <_>
          <internalNodes>
            0 -1 1255 -8.2328487187623978e-03</internalNodes>
          <leafValues>
            -7.6057785749435425e-01 7.6936133205890656e-02</leafValues></_>
        <_>
          <internalNodes>
            0 -1 1016 -5.0895195454359055e-03</internalNodes>
          <leafValues>
            4.0747967362403870e-01 -1.3849550485610962e-01</leafValues></_>
        <_>
          <internalNodes>
            0 -1 1063 3.3417969942092896e-02</internalNodes>
          <leafValues>
            -1.4619527757167816e-01 3.8079485297203064e-01</leafValues></_>
        <_>
          <internalNodes>
            0 -1 1204 2.4387062876485288e-04</internalNodes>
          <leafValues>
            -1.5189719200134277e-01 3.4331476688385010e-01</leafValues></_>
        <_>
          <internalNodes>
            0 -1 495 -1.0147152468562126e-02</internalNodes>
          <leafValues>
            4.9902439117431641e-01 -1.0226387530565262e-01</leafValues></_>
        <_>
          <internalNodes>
            0 -1 1078 1.0309813544154167e-02</internalNodes>
          <leafValues>
            -8.2153528928756714e-02 5.5896055698394775e-01</leafValues></_>
        <_>
          <internalNodes>
            0 -1 1252 -1.0785958147607744e-04</internalNodes>
          <leafValues>
            -5.0265157222747803e-01 1.1225870996713638e-01</leafValues></_>
        <_>
          <internalNodes>
            0 -1 1398 3.4012246032943949e-05</internalNodes>
          <leafValues>
            -3.5083764791488647e-01 1.4713583886623383e-01</leafValues></_>
        <_>
          <internalNodes>
            0 -1 425 3.9228843525052071e-03</internalNodes>
          <leafValues>
            -1.7013499140739441e-01 3.0769538879394531e-01</leafValues></_>
        <_>
          <internalNodes>
            0 -1 179 1.7615262186154723e-04</internalNodes>
          <leafValues>
            1.1253308504819870e-01 -4.3437558412551880e-01</leafValues></_>
        <_>
          <internalNodes>
            0 -1 484 -7.8524125274270773e-04</internalNodes>
          <leafValues>
            3.4081125259399414e-01 -1.6493383049964905e-01</leafValues></_>
        <_>
          <internalNodes>
            0 -1 864 -8.3253259072080255e-04</internalNodes>
          <leafValues>
            4.2461055517196655e-01 -1.2724989652633667e-01</leafValues></_>
        <_>
          <internalNodes>
            0 -1 678 3.6491851788014174e-03</internalNodes>
          <leafValues>
            -1.6808795928955078e-01 2.9767113924026489e-01</leafValues></_>
        <_>
          <internalNodes>
            0 -1 95 2.4444979499094188e-04</internalNodes>
          <leafValues>
            1.6962616145610809e-01 -3.1983175873756409e-01</leafValues></_>
        <_>
          <internalNodes>
            0 -1 247 2.8759888373315334e-03</internalNodes>
          <leafValues>
            -1.3392269611358643e-01 4.5265480875968933e-01</leafValues></_>
        <_>
          <internalNodes>
            0 -1 567 -1.1741353198885918e-02</internalNodes>
          <leafValues>
            -6.4429670572280884e-02 6.9110667705535889e-01</leafValues></_>
        <_>
          <internalNodes>
            0 -1 1246 -2.2108820267021656e-03</internalNodes>
          <leafValues>
            3.1582733988761902e-01 -1.4937631785869598e-01</leafValues></_>
        <_>
          <internalNodes>
            0 -1 1491 -5.4108509793877602e-03</internalNodes>
          <leafValues>
            1.3304744660854340e-01 -4.4076716899871826e-01</leafValues></_>
        <_>
          <internalNodes>
            0 -1 1457 1.1517757549881935e-02</internalNodes>
          <leafValues>
            1.1795751750469208e-01 -4.8234879970550537e-01</leafValues></_>
        <_>
          <internalNodes>
            0 -1 229 -1.7340874671936035e-01</internalNodes>
          <leafValues>
            -7.4776083230972290e-01 6.3683904707431793e-02</leafValues></_>
        <_>
          <internalNodes>
            0 -1 15 9.3017565086483955e-03</internalNodes>
          <leafValues>
            7.7302709221839905e-02 -5.7908630371093750e-01</leafValues></_>
        <_>
          <internalNodes>
            0 -1 1039 -3.8210183382034302e-02</internalNodes>
          <leafValues>
            6.4128321409225464e-01 -8.2683123648166656e-02</leafValues></_>
        <_>
          <internalNodes>
            0 -1 1202 -1.7285684589296579e-04</internalNodes>
          <leafValues>
            3.1584501266479492e-01 -1.5971344709396362e-01</leafValues></_>
        <_>
          <internalNodes>
            0 -1 968 -3.3160254824906588e-03</internalNodes>
          <leafValues>
            3.3281999826431274e-01 -1.3737723231315613e-01</leafValues></_>
        <_>
          <internalNodes>
            0 -1 1168 -2.5550380814820528e-03</internalNodes>
          <leafValues>
            -5.2811175584793091e-02 7.9796981811523438e-01</leafValues></_>
        <_>
          <internalNodes>
            0 -1 49 -1.5104198455810547e-01</internalNodes>
          <leafValues>
            3.7670701742172241e-01 -1.1640746891498566e-01</leafValues></_>
        <_>
          <internalNodes>
            0 -1 713 -9.8247663117945194e-05</internalNodes>
          <leafValues>
            2.9186865687370300e-01 -1.6638955473899841e-01</leafValues></_>
        <_>
          <internalNodes>
            0 -1 480 1.6364593058824539e-02</internalNodes>
          <leafValues>
            -7.1724198758602142e-02 6.7613631486892700e-01</leafValues></_>
        <_>
          <internalNodes>
            0 -1 1485 1.7876956553664058e-04</internalNodes>
          <leafValues>
            1.4374873042106628e-01 -3.5426411032676697e-01</leafValues></_>
        <_>
          <internalNodes>
            0 -1 1313 -1.1905576102435589e-03</internalNodes>
          <leafValues>
            3.8356471061706543e-01 -1.4098604023456573e-01</leafValues></_>
        <_>
          <internalNodes>
            0 -1 128 5.6773875257931650e-05</internalNodes>
          <leafValues>
            1.3244737684726715e-01 -3.5056447982788086e-01</leafValues></_>
        <_>
          <internalNodes>
            0 -1 1220 -2.4394826032221317e-03</internalNodes>
          <leafValues>
            4.8170933127403259e-01 -1.1211539059877396e-01</leafValues></_>
        <_>
          <internalNodes>
            0 -1 1295 4.2664743959903717e-03</internalNodes>
          <leafValues>
            9.0709015727043152e-02 -5.7324790954589844e-01</leafValues></_>
        <_>
          <internalNodes>
            0 -1 1448 -1.2349316966719925e-04</internalNodes>
          <leafValues>
            -4.1692990064620972e-01 1.1527776718139648e-01</leafValues></_>
        <_>
          <internalNodes>
            0 -1 371 -1.2616050429642200e-02</internalNodes>
          <leafValues>
            4.5640829205513000e-01 -1.1427835375070572e-01</leafValues></_>
        <_>
          <internalNodes>
            0 -1 1328 -6.8843836197629571e-04</internalNodes>
          <leafValues>
            4.4719868898391724e-01 -1.0001763701438904e-01</leafValues></_>
        <_>
          <internalNodes>
            0 -1 711 5.7390178553760052e-03</internalNodes>
          <leafValues>
            -9.3423664569854736e-02 4.9132096767425537e-01</leafValues></_>
        <_>
          <internalNodes>
            0 -1 868 9.2625450342893600e-03</internalNodes>
          <leafValues>
            -6.9235615432262421e-02 6.5664166212081909e-01</leafValues></_>
        <_>
          <internalNodes>
            0 -1 1279 4.2299879714846611e-03</internalNodes>
          <leafValues>
            -1.1715300381183624e-01 3.8773554563522339e-01</leafValues></_></weakClassifiers></_>
    <!-- stage 5 -->
    <_>
      <maxWeakCount>62</maxWeakCount>
      <stageThreshold>-2.6990091800689697e-01</stageThreshold>
      <weakClassifiers>
        <_>
          <internalNodes>
            0 -1 74 -1.5884762397035956e-03</internalNodes>
          <leafValues>
            6.7850798368453979e-01 -1.1290322244167328e-01</leafValues></_>
        <_>
          <internalNodes>
            0 -1 1406 -5.7493522763252258e-03</internalNodes>
          <leafValues>
            3.3024087548255920e-01 -3.2986289262771606e-01</leafValues></_>
        <_>
          <internalNodes>
            0 -1 564 6.5098457038402557e-02</internalNodes>
          <leafValues>
            -4.0889811515808105e-01 1.7896935343742371e-01</leafValues></_>
        <_>
          <internalNodes>
            0 -1 1370 3.2273154705762863e-02</internalNodes>
          <leafValues>
            -1.4668413996696472e-01 4.5650222897529602e-01</leafValues></_>
        <_>
          <internalNodes>
            0 -1 187 1.1526659131050110e-02</internalNodes>
          <leafValues>
            1.2108737975358963e-01 -5.2297472953796387e-01</leafValues></_>
        <_>
          <internalNodes>
            0 -1 438 1.7700978787615895e-03</internalNodes>
          <leafValues>
            -4.4552570581436157e-01 8.8085368275642395e-02</leafValues></_>
        <_>
          <internalNodes>
            0 -1 188 -1.8351053586229682e-04</internalNodes>
          <leafValues>
            -3.7674114108085632e-01 1.4724443852901459e-01</leafValues></_>
        <_>
          <internalNodes>
            0 -1 197 1.7404794692993164e-02</internalNodes>
          <leafValues>
            -1.6088025271892548e-01 4.3295237421989441e-01</leafValues></_>
        <_>
          <internalNodes>
            0 -1 379 2.3906385898590088e-01</internalNodes>
          <leafValues>
            -8.7621241807937622e-02 6.2383753061294556e-01</leafValues></_>
        <_>
          <internalNodes>
            0 -1 396 3.1357079744338989e-02</internalNodes>
          <leafValues>
            -1.5859302878379822e-01 3.5599294304847717e-01</leafValues></_>
        <_>
          <internalNodes>
            0 -1 498 8.5335463518276811e-04</internalNodes>
          <leafValues>
            -1.3027946650981903e-01 3.9203828573226929e-01</leafValues></_>
        <_>
          <internalNodes>
            0 -1 822 -1.2702760286629200e-02</internalNodes>
          <leafValues>
            2.3344691097736359e-01 -1.9655330479145050e-01</leafValues></_>
        <_>
          <internalNodes>
            0 -1 1388 -3.1198927899822593e-04</internalNodes>
          <leafValues>
            -3.3845695853233337e-01 1.4081826806068420e-01</leafValues></_>
        <_>
          <internalNodes>
            0 -1 36 5.7512028142809868e-03</internalNodes>
          <leafValues>
            -1.2001159042119980e-01 3.8267928361892700e-01</leafValues></_>
        <_>
          <internalNodes>
            0 -1 661 -2.5344222784042358e-02</internalNodes>
          <leafValues>
            -1.4907102286815643e-01 3.0699208378791809e-01</leafValues></_>
        <_>
          <internalNodes>
            0 -1 100 -5.3407577797770500e-03</internalNodes>
          <leafValues>
            1.4133231341838837e-01 -4.2534708976745605e-01</leafValues></_>
        <_>
          <internalNodes>
            0 -1 1290 -9.8532752599567175e-04</internalNodes>
          <leafValues>
            3.9789471030235291e-01 -1.1833333969116211e-01</leafValues></_>
        <_>
          <internalNodes>
            0 -1 1275 -2.1006701514124870e-02</internalNodes>
          <leafValues>
            6.3956660032272339e-01 -6.9804385304450989e-02</leafValues></_>
        <_>
          <internalNodes>
            0 -1 866 1.2289898004382849e-03</internalNodes>
          <leafValues>
            -1.2784515321254730e-01 3.5835632681846619e-01</leafValues></_>
        <_>
          <internalNodes>
            0 -1 1205 -6.8274943623691797e-04</internalNodes>
          <leafValues>
            2.5792559981346130e-01 -1.7634353041648865e-01</leafValues></_>
        <_>
          <internalNodes>
            0 -1 1476 -1.0467797517776489e-02</internalNodes>
          <leafValues>
            -5.8078676462173462e-01 7.1680314838886261e-02</leafValues></_>
        <_>
          <internalNodes>
            0 -1 1376 8.6684096604585648e-03</internalNodes>
          <leafValues>
            -3.0556428432464600e-01 1.3459983468055725e-01</leafValues></_>
        <_>
          <internalNodes>
            0 -1 933 5.0335458945482969e-04</internalNodes>
          <leafValues>
            -1.1787755042314529e-01 3.4964475035667419e-01</leafValues></_>
        <_>
          <internalNodes>
            0 -1 85 -3.6280259490013123e-02</internalNodes>
          <leafValues>
            3.1810757517814636e-01 -1.4050267636775970e-01</leafValues></_>
        <_>
          <internalNodes>
            0 -1 1088 1.0236745700240135e-02</internalNodes>
          <leafValues>
            -1.0325811803340912e-01 4.2677810788154602e-01</leafValues></_>
        <_>
          <internalNodes>
            0 -1 746 -1.0674534132704139e-04</internalNodes>
          <leafValues>
            -3.8254165649414062e-01 1.1367961019277573e-01</leafValues></_>
        <_>
          <internalNodes>
            0 -1 285 -2.9951371252536774e-03</internalNodes>
          <leafValues>
            2.8315472602844238e-01 -1.5620650351047516e-01</leafValues></_>
        <_>
          <internalNodes>
            0 -1 1280 -5.0527683924883604e-04</internalNodes>
          <leafValues>
            4.3479961156845093e-01 -1.1062902957201004e-01</leafValues></_>
        <_>
          <internalNodes>
            0 -1 211 -2.1671736240386963e-01</internalNodes>
          <leafValues>
            5.8280718326568604e-01 -7.3396421968936920e-02</leafValues></_>
        <_>
          <internalNodes>
            0 -1 1293 1.3097463175654411e-02</internalNodes>
          <leafValues>
            -1.2197196483612061e-01 3.2581245899200439e-01</leafValues></_>
        <_>
          <internalNodes>
            0 -1 650 1.8598018214106560e-02</internalNodes>
          <leafValues>
            -6.6052153706550598e-02 5.8518695831298828e-01</leafValues></_>
        <_>
          <internalNodes>
            0 -1 751 -1.3069096021354198e-03</internalNodes>
          <leafValues>
            5.6463137269020081e-02 -8.1556391716003418e-01</leafValues></_>
        <_>
          <internalNodes>
            0 -1 286 -7.7333510853350163e-03</internalNodes>
          <leafValues>
            -3.4521350264549255e-01 1.1819282919168472e-01</leafValues></_>
        <_>
          <internalNodes>
            0 -1 532 1.1886961292475462e-03</internalNodes>
          <leafValues>
            1.3549676537513733e-01 -3.0380240082740784e-01</leafValues></_>
        <_>
          <internalNodes>
            0 -1 607 1.4960241969674826e-03</internalNodes>
          <leafValues>
            -1.5739916265010834e-01 2.9537865519523621e-01</leafValues></_>
        <_>
          <internalNodes>
            0 -1 295 -9.0177312493324280e-02</internalNodes>
          <leafValues>
            4.2361158132553101e-01 -9.3947492539882660e-02</leafValues></_>
        <_>
          <internalNodes>
            0 -1 1434 -3.1752223148941994e-03</internalNodes>
          <leafValues>
            4.4785317778587341e-01 -9.8964802920818329e-02</leafValues></_>
        <_>
          <internalNodes>
            0 -1 626 1.5631698071956635e-02</internalNodes>
          <leafValues>
            -6.9217741489410400e-02 5.7176715135574341e-01</leafValues></_>
        <_>
          <internalNodes>
            0 -1 1112 -1.6407348448410630e-03</internalNodes>
          <leafValues>
            2.5355887413024902e-01 -1.8874531984329224e-01</leafValues></_>
        <_>
          <internalNodes>
            0 -1 883 -2.6793325319886208e-02</internalNodes>
          <leafValues>
            -4.2718583345413208e-01 1.1224499344825745e-01</leafValues></_>
        <_>
          <internalNodes>
            0 -1 1232 3.1275963410735130e-03</internalNodes>
          <leafValues>
            -1.3129726052284241e-01 3.7127935886383057e-01</leafValues></_>
        <_>
          <internalNodes>
            0 -1 1093 1.3054764829576015e-02</internalNodes>
          <leafValues>
            8.7549015879631042e-02 -6.2486249208450317e-01</leafValues></_>
        <_>
          <internalNodes>
            0 -1 516 -1.0927341645583510e-03</internalNodes>
          <leafValues>
            3.9778611063957214e-01 -1.2226337194442749e-01</leafValues></_>
        <_>
          <internalNodes>
            0 -1 972 1.5493351384066045e-04</internalNodes>
          <leafValues>
            -1.3946370780467987e-01 2.9962059855461121e-01</leafValues></_>
        <_>
          <internalNodes>
            0 -1 144 -1.1687601916491985e-02</internalNodes>
          <leafValues>
            1.3059903681278229e-01 -3.1518238782882690e-01</leafValues></_>
        <_>
          <internalNodes>
            0 -1 591 -9.2163239605724812e-04</internalNodes>
          <leafValues>
            4.0654417872428894e-01 -1.1093302816152573e-01</leafValues></_>
        <_>
          <internalNodes>
            0 -1 269 3.3576595596969128e-03</internalNodes>
          <leafValues>
            -1.3712862133979797e-01 2.9796710610389709e-01</leafValues></_>
        <_>
          <internalNodes>
            0 -1 948 -1.4221170567907393e-04</internalNodes>
          <leafValues>
            -4.7615900635719299e-01 1.0767124593257904e-01</leafValues></_>
        <_>
          <internalNodes>
            0 -1 1292 -2.5362994521856308e-02</internalNodes>
          <leafValues>
            -7.5250726938247681e-01 5.1848966628313065e-02</leafValues></_>
        <_>
          <internalNodes>
            0 -1 227 -3.8625539746135473e-03</internalNodes>
          <leafValues>
            2.5824958086013794e-01 -1.8052047491073608e-01</leafValues></_>
        <_>
          <internalNodes>
            0 -1 1086 -1.0700856801122427e-03</internalNodes>
          <leafValues>
            4.0418213605880737e-01 -1.0460183769464493e-01</leafValues></_>
        <_>
          <internalNodes>
            0 -1 746 1.1426427226979285e-04</internalNodes>
          <leafValues>
            1.2752643227577209e-01 -3.7025505304336548e-01</leafValues></_>
        <_>
          <internalNodes>
            0 -1 904 -2.6722587645053864e-03</internalNodes>
          <leafValues>
            -8.7154322862625122e-01 4.5631751418113708e-02</leafValues></_>
        <_>
          <internalNodes>
            0 -1 435 -7.6115436851978302e-02</internalNodes>
          <leafValues>
            -9.1893339157104492e-01 3.4567393362522125e-02</leafValues></_>
        <_>
          <internalNodes>
            0 -1 900 -4.1877152398228645e-03</internalNodes>
          <leafValues>
            -5.6093794107437134e-01 6.6769175231456757e-02</leafValues></_>
        <_>
          <internalNodes>
            0 -1 1440 -1.6427348600700498e-04</internalNodes>
          <leafValues>
            -4.9593704938888550e-01 7.7065080404281616e-02</leafValues></_>
        <_>
          <internalNodes>
            0 -1 1277 7.1516411844640970e-04</internalNodes>
          <leafValues>
            -1.2807305157184601e-01 3.3050546050071716e-01</leafValues></_>
        <_>
          <internalNodes>
            0 -1 269 -1.3865870423614979e-03</internalNodes>
          <leafValues>
            2.8367090225219727e-01 -1.5540139377117157e-01</leafValues></_>
        <_>
          <internalNodes>
            0 -1 676 2.1374560892581940e-03</internalNodes>
          <leafValues>
            -1.4569446444511414e-01 3.2706022262573242e-01</leafValues></_>
        <_>
          <internalNodes>
            0 -1 987 -2.6895821793004870e-04</internalNodes>
          <leafValues>
            2.2479255497455597e-01 -1.9382154941558838e-01</leafValues></_>
        <_>
          <internalNodes>
            0 -1 60 -2.0961833000183105e-01</internalNodes>
          <leafValues>
            2.3107790946960449e-01 -2.0661163330078125e-01</leafValues></_>
        <_>
          <internalNodes>
            0 -1 1227 -9.0563858975656331e-05</internalNodes>
          <leafValues>
            2.9290425777435303e-01 -1.4042127132415771e-01</leafValues></_></weakClassifiers></_>
    <!-- stage 6 -->
    <_>
      <maxWeakCount>67</maxWeakCount>
      <stageThreshold>-2.7852120995521545e-01</stageThreshold>
      <weakClassifiers>
        <_>
          <internalNodes>
            0 -1 1139 -2.1293398458510637e-04</internalNodes>
          <leafValues>
            -1.1675126850605011e-01 6.6131132841110229e-01</leafValues></_>
        <_>
          <internalNodes>
            0 -1 374 -3.6921710707247257e-03</internalNodes>
          <leafValues>
            3.6245027184486389e-01 -2.3268949985504150e-01</leafValues></_>
        <_>
          <internalNodes>
            0 -1 47 -6.6493302583694458e-02</internalNodes>
          <leafValues>
            3.6577114462852478e-01 -2.1912057697772980e-01</leafValues></_>
        <_>
          <internalNodes>
            0 -1 1387 1.7866045527625829e-04</internalNodes>
          <leafValues>
            1.3987597823143005e-01 -5.4754221439361572e-01</leafValues></_>
        <_>
          <internalNodes>
            0 -1 136 -3.8510202430188656e-03</internalNodes>
          <leafValues>
            -5.8048468828201294e-01 1.0962992906570435e-01</leafValues></_>
        <_>
          <internalNodes>
            0 -1 1371 3.7420291453599930e-02</internalNodes>
          <leafValues>
            -1.7684304714202881e-01 3.3808571100234985e-01</leafValues></_>
        <_>
          <internalNodes>
            0 -1 642 -5.7941740378737450e-03</internalNodes>
          <leafValues>
            5.2974116802215576e-01 -1.0906208306550980e-01</leafValues></_>
        <_>
          <internalNodes>
            0 -1 370 3.4368585329502821e-03</internalNodes>
          <leafValues>
            -9.7818598151206970e-02 5.9994852542877197e-01</leafValues></_>
        <_>
          <internalNodes>
            0 -1 1274 9.8548503592610359e-04</internalNodes>
          <leafValues>
            -1.2406896054744720e-01 3.7555599212646484e-01</leafValues></_>
        <_>
          <internalNodes>
            0 -1 534 -5.8053210377693176e-02</internalNodes>
          <leafValues>
            -3.0949652194976807e-01 1.6484916210174561e-01</leafValues></_>
        <_>
          <internalNodes>
            0 -1 42 5.9847114607691765e-03</internalNodes>
          <leafValues>
            1.3974836468696594e-01 -3.5887956619262695e-01</leafValues></_>
        <_>
          <internalNodes>
            0 -1 427 2.2342316806316376e-02</internalNodes>
          <leafValues>
            -3.5237810015678406e-01 1.3311301171779633e-01</leafValues></_>
        <_>
          <internalNodes>
            0 -1 1466 1.5887176617980003e-02</internalNodes>
          <leafValues>
            6.7948080599308014e-02 -7.0665681362152100e-01</leafValues></_>
        <_>
          <internalNodes>
            0 -1 329 2.1300628781318665e-01</internalNodes>
          <leafValues>
            -9.9535278975963593e-02 5.7935762405395508e-01</leafValues></_>
        <_>
          <internalNodes>
            0 -1 679 4.3401354923844337e-03</internalNodes>
          <leafValues>
            -2.1357636153697968e-01 2.3513838648796082e-01</leafValues></_>
        <_>
          <internalNodes>
            0 -1 6 -6.2258387915790081e-03</internalNodes>
          <leafValues>
            4.2665937542915344e-01 -1.1781584471464157e-01</leafValues></_>
        <_>
          <internalNodes>
            0 -1 840 -1.5904318541288376e-02</internalNodes>
          <leafValues>
            3.4933596849441528e-01 -1.2982089817523956e-01</leafValues></_>
        <_>
          <internalNodes>
            0 -1 320 -3.2982956618070602e-03</internalNodes>
          <leafValues>
            4.3345564603805542e-01 -1.0992255061864853e-01</leafValues></_>
        <_>
          <internalNodes>
            0 -1 846 2.0954252977389842e-04</internalNodes>
          <leafValues>
            -1.3922967016696930e-01 3.4325450658798218e-01</leafValues></_>
        <_>
          <internalNodes>
            0 -1 610 -7.5217648409307003e-03</internalNodes>
          <leafValues>
            3.4662187099456787e-01 -1.4493669569492340e-01</leafValues></_>
        <_>
          <internalNodes>
            0 -1 964 -1.9427631050348282e-02</internalNodes>
          <leafValues>
            5.3096795082092285e-01 -9.0479061007499695e-02</leafValues></_>
        <_>
          <internalNodes>
            0 -1 1425 1.1547747999429703e-03</internalNodes>
          <leafValues>
            -3.2073587179183960e-01 1.5590268373489380e-01</leafValues></_>
        <_>
          <internalNodes>
            0 -1 749 -6.6093027591705322e-01</internalNodes>
          <leafValues>
            -7.0733791589736938e-01 6.0665562748908997e-02</leafValues></_>
        <_>
          <internalNodes>
            0 -1 22 -5.3023952059447765e-03</internalNodes>
          <leafValues>
            -3.6479496955871582e-01 1.1837486922740936e-01</leafValues></_>
        <_>
          <internalNodes>
            0 -1 19 2.5737062096595764e-03</internalNodes>
          <leafValues>
            1.3312986493110657e-01 -3.3160382509231567e-01</leafValues></_>
        <_>
          <internalNodes>
            0 -1 841 1.0216903174296021e-03</internalNodes>
          <leafValues>
            7.2753094136714935e-02 -5.8979851007461548e-01</leafValues></_>
        <_>
          <internalNodes>
            0 -1 705 2.2278708638623357e-04</internalNodes>
          <leafValues>
            -1.7325568199157715e-01 2.7657496929168701e-01</leafValues></_>
        <_>
          <internalNodes>
            0 -1 695 -4.8301799688488245e-04</internalNodes>
          <leafValues>
            2.3713149130344391e-01 -1.7775838077068329e-01</leafValues></_>
        <_>
          <internalNodes>
            0 -1 923 3.5159499384462833e-03</internalNodes>
          <leafValues>
            -1.2498458474874496e-01 3.2491526007652283e-01</leafValues></_>
        <_>
          <internalNodes>
            0 -1 226 4.1338711977005005e-02</internalNodes>
          <leafValues>
            -4.0991451591253281e-02 9.2995542287826538e-01</leafValues></_>
        <_>
          <internalNodes>
            0 -1 474 -6.6942334175109863e-02</internalNodes>
          <leafValues>
            -7.8671805560588837e-02 4.6941035985946655e-01</leafValues></_>
        <_>
          <internalNodes>
            0 -1 110 -1.1052577756345272e-02</internalNodes>
          <leafValues>
            1.2517108023166656e-01 -4.1616594791412354e-01</leafValues></_>
        <_>
          <internalNodes>
            0 -1 1341 9.8098563030362129e-03</internalNodes>
          <leafValues>
            -8.0008007586002350e-02 5.5993580818176270e-01</leafValues></_>
        <_>
          <internalNodes>
            0 -1 615 -1.3909789919853210e-01</internalNodes>
          <leafValues>
            6.1944496631622314e-01 -5.8366805315017700e-02</leafValues></_>
        <_>
          <internalNodes>
            0 -1 77 1.1233028024435043e-01</internalNodes>
          <leafValues>
            -9.8820745944976807e-02 4.3115049600601196e-01</leafValues></_>
        <_>
          <internalNodes>
            0 -1 1066 -1.1442450806498528e-02</internalNodes>
          <leafValues>
            5.0845307111740112e-01 -8.3439223468303680e-02</leafValues></_>
        <_>
          <internalNodes>
            0 -1 654 -1.8336426466703415e-02</internalNodes>
          <leafValues>
            5.2356648445129395e-01 -6.8119294941425323e-02</leafValues></_>
        <_>
          <internalNodes>
            0 -1 935 1.3240757584571838e-01</internalNodes>
          <leafValues>
            6.7956395447254181e-02 -6.2646639347076416e-01</leafValues></_>
        <_>
          <internalNodes>
            0 -1 765 -8.3418518304824829e-02</internalNodes>
          <leafValues>
            -5.7218188047409058e-01 6.0541957616806030e-02</leafValues></_>
        <_>
          <internalNodes>
            0 -1 1242 1.2033820385113358e-03</internalNodes>
          <leafValues>
            -1.2197240442037582e-01 3.2012543082237244e-01</leafValues></_>
        <_>
          <internalNodes>
            0 -1 464 -1.2886911630630493e-02</internalNodes>
          <leafValues>
            5.7918345928192139e-01 -5.8494418859481812e-02</leafValues></_>
        <_>
          <internalNodes>
            0 -1 966 -1.5782732516527176e-03</internalNodes>
          <leafValues>
            5.2720572799444199e-02 -7.6051557064056396e-01</leafValues></_>
        <_>
          <internalNodes>
            0 -1 366 -3.7159293424338102e-03</internalNodes>
          <leafValues>
            3.2776948809623718e-01 -1.2215231359004974e-01</leafValues></_>
        <_>
          <internalNodes>
            0 -1 235 -3.4233945608139038e-01</internalNodes>
          <leafValues>
            -5.4597929120063782e-02 6.4131730794906616e-01</leafValues></_>
        <_>
          <internalNodes>
            0 -1 118 -1.3304999447427690e-04</internalNodes>
          <leafValues>
            -3.5864624381065369e-01 1.1951351165771484e-01</leafValues></_>
        <_>
          <internalNodes>
            0 -1 93 -7.9741803929209709e-03</internalNodes>
          <leafValues>
            -5.6569027900695801e-01 6.3486702740192413e-02</leafValues></_>
        <_>
          <internalNodes>
            0 -1 1446 1.7118325922638178e-04</internalNodes>
          <leafValues>
            8.2532495260238647e-02 -4.6554878354072571e-01</leafValues></_>
        <_>
          <internalNodes>
            0 -1 613 2.6079360395669937e-04</internalNodes>
          <leafValues>
            -1.0233175754547119e-01 4.5094144344329834e-01</leafValues></_>
        <_>
          <internalNodes>
            0 -1 52 3.2589850015938282e-03</internalNodes>
          <leafValues>
            9.0757265686988831e-02 -4.5387959480285645e-01</leafValues></_>
        <_>
          <internalNodes>
            0 -1 1052 2.7350103482604027e-04</internalNodes>
          <leafValues>
            -1.1290986090898514e-01 3.5418948531150818e-01</leafValues></_>
        <_>
          <internalNodes>
            0 -1 560 -1.1524294503033161e-02</internalNodes>
          <leafValues>
            2.4350887537002563e-01 -1.6244232654571533e-01</leafValues></_>
        <_>
          <internalNodes>
            0 -1 353 1.2032651342451572e-02</internalNodes>
          <leafValues>
            -6.3333265483379364e-02 6.5283936262130737e-01</leafValues></_>
        <_>
          <internalNodes>
            0 -1 870 -4.7261352301575243e-04</internalNodes>
          <leafValues>
            2.7872329950332642e-01 -1.2020965665578842e-01</leafValues></_>
        <_>
          <internalNodes>
            0 -1 505 -1.7403874546289444e-02</internalNodes>
          <leafValues>
            -6.1393153667449951e-01 7.2927348315715790e-02</leafValues></_>
        <_>
          <internalNodes>
            0 -1 889 2.7139708399772644e-03</internalNodes>
          <leafValues>
            9.0340897440910339e-02 -3.6822614073753357e-01</leafValues></_>
        <_>
          <internalNodes>
            0 -1 146 -3.2560189720243216e-03</internalNodes>
          <leafValues>
            4.2624697089195251e-01 -8.7801724672317505e-02</leafValues></_>
        <_>
          <internalNodes>
            0 -1 154 -9.8240067018195987e-05</internalNodes>
          <leafValues>
            -3.9177250862121582e-01 1.1481475830078125e-01</leafValues></_>
        <_>
          <internalNodes>
            0 -1 56 -5.3834609687328339e-02</internalNodes>
          <leafValues>
            6.4591234922409058e-01 -6.5589360892772675e-02</leafValues></_>
        <_>
          <internalNodes>
            0 -1 1418 6.8713668733835220e-03</internalNodes>
          <leafValues>
            -7.3072053492069244e-02 4.7585725784301758e-01</leafValues></_>
        <_>
          <internalNodes>
            0 -1 1411 1.2649165000766516e-03</internalNodes>
          <leafValues>
            -1.7621748149394989e-01 2.4417527019977570e-01</leafValues></_>
        <_>
          <internalNodes>
            0 -1 1380 -7.0940274745225906e-03</internalNodes>
          <leafValues>
            -5.3712284564971924e-01 8.3621524274349213e-02</leafValues></_>
        <_>
          <internalNodes>
            0 -1 1027 -6.3989292830228806e-03</internalNodes>
          <leafValues>
            -4.2217916250228882e-01 8.4681101143360138e-02</leafValues></_>
        <_>
          <internalNodes>
            0 -1 756 -6.1201313510537148e-03</internalNodes>
          <leafValues>
            3.1507265567779541e-01 -1.2436807900667191e-01</leafValues></_>
        <_>
          <internalNodes>
            0 -1 371 -1.5096375718712807e-02</internalNodes>
          <leafValues>
            5.3270894289016724e-01 -7.8469328582286835e-02</leafValues></_>
        <_>
          <internalNodes>
            0 -1 965 -2.8000753372907639e-02</internalNodes>
          <leafValues>
            6.5305638313293457e-01 -5.6367527693510056e-02</leafValues></_>
        <_>
          <internalNodes>
            0 -1 569 -1.7527509480714798e-02</internalNodes>
          <leafValues>
            7.1827012300491333e-01 -4.1371319442987442e-02</leafValues></_>
        <_>
          <internalNodes>
            0 -1 1106 -5.5361650884151459e-03</internalNodes>
          <leafValues>
            -8.8024330139160156e-01 5.1785234361886978e-02</leafValues></_></weakClassifiers></_>
    <!-- stage 7 -->
    <_>
      <maxWeakCount>77</maxWeakCount>
      <stageThreshold>-2.1420101821422577e-01</stageThreshold>
      <weakClassifiers>
        <_>
          <internalNodes>
            0 -1 786 -9.0120779350399971e-03</internalNodes>
          <leafValues>
            -2.1621622145175934e-01 6.5136057138442993e-01</leafValues></_>
        <_>
          <internalNodes>
            0 -1 446 1.0527906939387321e-02</internalNodes>
          <leafValues>
            2.5582396984100342e-01 -3.7558171153068542e-01</leafValues></_>
        <_>
          <internalNodes>
            0 -1 872 -1.4441375969909132e-04</internalNodes>
          <leafValues>
            -6.5516597032546997e-01 8.9854069054126740e-02</leafValues></_>
        <_>
          <internalNodes>
            0 -1 1481 2.9414063319563866e-03</internalNodes>
          <leafValues>
            1.5914803743362427e-01 -3.7224009633064270e-01</leafValues></_>
        <_>
          <internalNodes>
            0 -1 40 -6.2483362853527069e-03</internalNodes>
          <leafValues>
            -4.6274128556251526e-01 1.0608454793691635e-01</leafValues></_>
        <_>
          <internalNodes>
            0 -1 436 4.3916739523410797e-03</internalNodes>
          <leafValues>
            -1.2454701215028763e-01 3.9068779349327087e-01</leafValues></_>
        <_>
          <internalNodes>
            0 -1 1490 -1.5831613563932478e-04</internalNodes>
          <leafValues>
            -4.6137407422065735e-01 7.6168186962604523e-02</leafValues></_>
        <_>
          <internalNodes>
            0 -1 35 -6.2942542135715485e-02</internalNodes>
          <leafValues>
            2.2345869243144989e-01 -2.0792461931705475e-01</leafValues></_>
        <_>
          <internalNodes>
            0 -1 1056 -5.4641785100102425e-03</internalNodes>
          <leafValues>
            2.5889560580253601e-01 -1.5463608503341675e-01</leafValues></_>
        <_>
          <internalNodes>
            0 -1 1119 -1.1572347721084952e-03</internalNodes>
          <leafValues>
            3.2963714003562927e-01 -1.5691977739334106e-01</leafValues></_>
        <_>
          <internalNodes>
            0 -1 442 -1.9643884152173996e-02</internalNodes>
          <leafValues>
            1.1643994599580765e-01 -3.9291048049926758e-01</leafValues></_>
        <_>
          <internalNodes>
            0 -1 986 2.5836427230387926e-03</internalNodes>
          <leafValues>
            6.0931317508220673e-02 -6.9411790370941162e-01</leafValues></_>
        <_>
          <internalNodes>
            0 -1 451 -2.7932661771774292e-01</internalNodes>
          <leafValues>
            -6.3568967580795288e-01 6.3144125044345856e-02</leafValues></_>
        <_>
          <internalNodes>
            0 -1 905 -4.0512003004550934e-02</internalNodes>
          <leafValues>
            -1.4571242034435272e-01 2.9840737581253052e-01</leafValues></_>
        <_>
          <internalNodes>
            0 -1 1006 -2.9059741063974798e-04</internalNodes>
          <leafValues>
            2.9805839061737061e-01 -1.5736189484596252e-01</leafValues></_>
        <_>
          <internalNodes>
            0 -1 493 5.8251392329111695e-04</internalNodes>
          <leafValues>
            -1.2369821220636368e-01 3.3296823501586914e-01</leafValues></_>
        <_>
          <internalNodes>
            0 -1 827 3.2012299634516239e-03</internalNodes>
          <leafValues>
            6.5973654389381409e-02 -7.0069026947021484e-01</leafValues></_>
        <_>
          <internalNodes>
            0 -1 647 1.4645673334598541e-02</internalNodes>
          <leafValues>
            -1.2750688195228577e-01 3.5077586770057678e-01</leafValues></_>
        <_>
          <internalNodes>
            0 -1 465 -6.2482975423336029e-02</internalNodes>
          <leafValues>
            7.5089091062545776e-01 -5.6168671697378159e-02</leafValues></_>
        <_>
          <internalNodes>
            0 -1 742 6.7517124989535660e-05</internalNodes>
          <leafValues>
            1.5184333920478821e-01 -2.9397472739219666e-01</leafValues></_>
        <_>
          <internalNodes>
            0 -1 720 2.7288047596812248e-02</internalNodes>
          <leafValues>
            -5.7676102966070175e-02 7.7963799238204956e-01</leafValues></_>
        <_>
          <internalNodes>
            0 -1 793 -1.1493366910144687e-03</internalNodes>
          <leafValues>
            3.6426219344139099e-01 -1.0333817452192307e-01</leafValues></_>
        <_>
          <internalNodes>
            0 -1 1473 4.6098842285573483e-03</internalNodes>
          <leafValues>
            7.2884261608123779e-02 -5.6893485784530640e-01</leafValues></_>
        <_>
          <internalNodes>
            0 -1 1125 -2.6468149735592306e-04</internalNodes>
          <leafValues>
            3.1889021396636963e-01 -1.3640004396438599e-01</leafValues></_>
        <_>
          <internalNodes>
            0 -1 929 4.4415881857275963e-03</internalNodes>
          <leafValues>
            -1.2597687542438507e-01 3.1206858158111572e-01</leafValues></_>
        <_>
          <internalNodes>
            0 -1 180 -3.8727064384147525e-04</internalNodes>
          <leafValues>
            -4.7064697742462158e-01 9.8088562488555908e-02</leafValues></_>
        <_>
          <internalNodes>
            0 -1 53 4.1583180427551270e-03</internalNodes>
          <leafValues>
            8.8447749614715576e-02 -4.3141350150108337e-01</leafValues></_>
        <_>
          <internalNodes>
            0 -1 98 -8.8754557073116302e-03</internalNodes>
          <leafValues>
            4.1363167762756348e-01 -1.2168289721012115e-01</leafValues></_>
        <_>
          <internalNodes>
            0 -1 584 -6.5523979719728231e-04</internalNodes>
          <leafValues>
            4.2074084281921387e-01 -9.7037903964519501e-02</leafValues></_>
        <_>
          <internalNodes>
            0 -1 1346 4.2057439684867859e-02</internalNodes>
          <leafValues>
            -9.3480892479419708e-02 4.2817953228950500e-01</leafValues></_>
        <_>
          <internalNodes>
            0 -1 1382 -9.7628385992720723e-04</internalNodes>
          <leafValues>
            -5.0814568996429443e-01 9.1788068413734436e-02</leafValues></_>
        <_>
          <internalNodes>
            0 -1 1074 2.3999875411391258e-03</internalNodes>
          <leafValues>
            -1.3934570550918579e-01 2.8713881969451904e-01</leafValues></_>
        <_>
          <internalNodes>
            0 -1 1226 -5.8438675478100777e-03</internalNodes>
          <leafValues>
            3.3169054985046387e-01 -1.0639785230159760e-01</leafValues></_>
        <_>
          <internalNodes>
            0 -1 1083 8.1134252250194550e-03</internalNodes>
          <leafValues>
            -8.0830223858356476e-02 4.3813148140907288e-01</leafValues></_>
        <_>
          <internalNodes>
            0 -1 454 1.5125888586044312e-01</internalNodes>
          <leafValues>
            -5.7416852563619614e-02 5.7515156269073486e-01</leafValues></_>
        <_>
          <internalNodes>
            0 -1 989 -3.5113327205181122e-02</internalNodes>
          <leafValues>
            3.6070847511291504e-01 -1.2702934443950653e-01</leafValues></_>
        <_>
          <internalNodes>
            0 -1 1347 -6.9462023675441742e-03</internalNodes>
          <leafValues>
            4.6718764305114746e-01 -8.0805048346519470e-02</leafValues></_>
        <_>
          <internalNodes>
            0 -1 1362 -2.1776088033220731e-05</internalNodes>
          <leafValues>
            -2.2324864566326141e-01 1.8071471154689789e-01</leafValues></_>
        <_>
          <internalNodes>
            0 -1 177 -8.5163384210318327e-04</internalNodes>
          <leafValues>
            3.6214113235473633e-01 -1.1303306370973587e-01</leafValues></_>
        <_>
          <internalNodes>
            0 -1 450 -3.6502752453088760e-02</internalNodes>
          <leafValues>
            3.5860523581504822e-01 -9.6766531467437744e-02</leafValues></_>
        <_>
          <internalNodes>
            0 -1 573 1.4770410954952240e-02</internalNodes>
          <leafValues>
            -1.0205967724323273e-01 3.8954544067382812e-01</leafValues></_>
        <_>
          <internalNodes>
            0 -1 359 -1.3524359383154660e-04</internalNodes>
          <leafValues>
            -2.7979499101638794e-01 1.3917796313762665e-01</leafValues></_>
        <_>
          <internalNodes>
            0 -1 877 2.0514249627012759e-04</internalNodes>
          <leafValues>
            8.4394589066505432e-02 -4.1819161176681519e-01</leafValues></_>
        <_>
          <internalNodes>
            0 -1 924 9.0393638238310814e-03</internalNodes>
          <leafValues>
            -1.3240510225296021e-01 2.9656326770782471e-01</leafValues></_>
        <_>
          <internalNodes>
            0 -1 614 1.0836346447467804e-01</internalNodes>
          <leafValues>
            1.0769326984882355e-01 -3.7415176630020142e-01</leafValues></_>
        <_>
          <internalNodes>
            0 -1 57 -4.3756499886512756e-02</internalNodes>
          <leafValues>
            3.5276386141777039e-01 -1.2874101102352142e-01</leafValues></_>
        <_>
          <internalNodes>
            0 -1 1096 9.9436042364686728e-04</internalNodes>
          <leafValues>
            -9.3959555029869080e-02 4.3377777934074402e-01</leafValues></_>
        <_>
          <internalNodes>
            0 -1 1487 -2.3488067381549627e-04</internalNodes>
          <leafValues>
            -4.2024761438369751e-01 1.0063895583152771e-01</leafValues></_>
        <_>
          <internalNodes>
            0 -1 48 5.8586753904819489e-02</internalNodes>
          <leafValues>
            -1.0630062222480774e-01 3.8362047076225281e-01</leafValues></_>
        <_>
          <internalNodes>
            0 -1 1431 4.6429005451500416e-03</internalNodes>
          <leafValues>
            -9.6515044569969177e-02 4.0892618894577026e-01</leafValues></_>
        <_>
          <internalNodes>
            0 -1 1365 8.1026577390730381e-04</internalNodes>
          <leafValues>
            -8.2466699182987213e-02 4.4458287954330444e-01</leafValues></_>
        <_>
          <internalNodes>
            0 -1 148 3.7795200943946838e-02</internalNodes>
          <leafValues>
            6.1683826148509979e-02 -6.5859168767929077e-01</leafValues></_>
        <_>
          <internalNodes>
            0 -1 1462 -1.8522379919886589e-02</internalNodes>
          <leafValues>
            -7.8415507078170776e-01 4.2463168501853943e-02</leafValues></_>
        <_>
          <internalNodes>
            0 -1 287 -1.6090400516986847e-02</internalNodes>
          <leafValues>
            5.4138511419296265e-01 -8.5093639791011810e-02</leafValues></_>
        <_>
          <internalNodes>
            0 -1 653 -6.4049214124679565e-03</internalNodes>
          <leafValues>
            5.2068638801574707e-01 -6.3178285956382751e-02</leafValues></_>
        <_>
          <internalNodes>
            0 -1 985 1.4624197501689196e-03</internalNodes>
          <leafValues>
            6.0647457838058472e-02 -6.8654525279998779e-01</leafValues></_>
        <_>
          <internalNodes>
            0 -1 540 5.7136178016662598e-02</internalNodes>
          <leafValues>
            1.0091385990381241e-01 -3.5381129384040833e-01</leafValues></_>
        <_>
          <internalNodes>
            0 -1 682 -3.1744778156280518e-02</internalNodes>
          <leafValues>
            -6.0346198081970215e-01 6.5726540982723236e-02</leafValues></_>
        <_>
          <internalNodes>
            0 -1 1449 -1.5976243957993574e-05</internalNodes>
          <leafValues>
            -3.5429775714874268e-01 9.6098951995372772e-02</leafValues></_>
        <_>
          <internalNodes>
            0 -1 985 -1.5593492425978184e-03</internalNodes>
          <leafValues>
            -6.2452703714370728e-01 5.8800593018531799e-02</leafValues></_>
        <_>
          <internalNodes>
            0 -1 521 1.7861790256574750e-03</internalNodes>
          <leafValues>
            -3.1363642215728760e-01 1.2209905683994293e-01</leafValues></_>
        <_>
          <internalNodes>
            0 -1 1435 1.1157150584040210e-04</internalNodes>
          <leafValues>
            1.5265095233917236e-01 -2.3855711519718170e-01</leafValues></_>
        <_>
          <internalNodes>
            0 -1 1432 -5.8759214880410582e-05</internalNodes>
          <leafValues>
            -3.8471597433090210e-01 9.7327008843421936e-02</leafValues></_>
        <_>
          <internalNodes>
            0 -1 1326 -3.6373792681843042e-04</internalNodes>
          <leafValues>
            3.5626387596130371e-01 -1.1946138739585876e-01</leafValues></_>
        <_>
          <internalNodes>
            0 -1 665 2.7020839042961597e-03</internalNodes>
          <leafValues>
            -7.4290096759796143e-02 4.8393487930297852e-01</leafValues></_>
        <_>
          <internalNodes>
            0 -1 513 7.3676598258316517e-03</internalNodes>
          <leafValues>
            -7.5125314295291901e-02 4.3290749192237854e-01</leafValues></_>
        <_>
          <internalNodes>
            0 -1 588 -2.1484768949449062e-03</internalNodes>
          <leafValues>
            4.1383564472198486e-01 -8.1453546881675720e-02</leafValues></_>
        <_>
          <internalNodes>
            0 -1 463 3.1669188756495714e-03</internalNodes>
          <leafValues>
            -1.0756205767393112e-01 3.3916443586349487e-01</leafValues></_>
        <_>
          <internalNodes>
            0 -1 949 2.1485260222107172e-03</internalNodes>
          <leafValues>
            7.7032968401908875e-02 -4.7440958023071289e-01</leafValues></_>
        <_>
          <internalNodes>
            0 -1 561 3.1757169961929321e-01</internalNodes>
          <leafValues>
            -5.3593963384628296e-02 7.2112166881561279e-01</leafValues></_>
        <_>
          <internalNodes>
            0 -1 1458 -1.6847546794451773e-04</internalNodes>
          <leafValues>
            -3.0280360579490662e-01 1.1656066030263901e-01</leafValues></_>
        <_>
          <internalNodes>
            0 -1 1303 2.1918932907283306e-03</internalNodes>
          <leafValues>
            -1.3901001214981079e-01 2.6826423406600952e-01</leafValues></_>
        <_>
          <internalNodes>
            0 -1 1211 3.4999004565179348e-03</internalNodes>
          <leafValues>
            4.6337224543094635e-02 -7.8631877899169922e-01</leafValues></_>
        <_>
          <internalNodes>
            0 -1 7 -1.5732309548184276e-03</internalNodes>
          <leafValues>
            -3.3351540565490723e-01 9.8706215620040894e-02</leafValues></_>
        <_>
          <internalNodes>
            0 -1 452 -6.1099510639905930e-03</internalNodes>
          <leafValues>
            2.2054243087768555e-01 -1.6811829805374146e-01</leafValues></_>
        <_>
          <internalNodes>
            0 -1 879 -5.8461846492718905e-05</internalNodes>
          <leafValues>
            -2.0249831676483154e-01 1.9969889521598816e-01</leafValues></_>
        <_>
          <internalNodes>
            0 -1 927 7.6921107247471809e-03</internalNodes>
          <leafValues>
            -7.0757098495960236e-02 5.7365405559539795e-01</leafValues></_></weakClassifiers></_>
    <!-- stage 8 -->
    <_>
      <maxWeakCount>75</maxWeakCount>
      <stageThreshold>-2.5117692351341248e-01</stageThreshold>
      <weakClassifiers>
        <_>
          <internalNodes>
            0 -1 82 5.2650729194283485e-03</internalNodes>
          <leafValues>
            6.7236721515655518e-01 2.1582733839750290e-02</leafValues></_>
        <_>
          <internalNodes>
            0 -1 201 -3.9225906133651733e-02</internalNodes>
          <leafValues>
            3.7476858496665955e-01 -2.0758773386478424e-01</leafValues></_>
        <_>
          <internalNodes>
            0 -1 1376 2.0332841668277979e-03</internalNodes>
          <leafValues>
            -5.4671353101730347e-01 1.2638092041015625e-01</leafValues></_>
        <_>
          <internalNodes>
            0 -1 115 4.1591152548789978e-02</internalNodes>
          <leafValues>
            -3.4938830137252808e-01 1.6655153036117554e-01</leafValues></_>
        <_>
          <internalNodes>
            0 -1 1337 1.6234375536441803e-02</internalNodes>
          <leafValues>
            -7.7992685139179230e-02 6.6522121429443359e-01</leafValues></_>
        <_>
          <internalNodes>
            0 -1 917 -1.2726139277219772e-02</internalNodes>
          <leafValues>
            3.5142126679420471e-01 -1.4171193540096283e-01</leafValues></_>
        <_>
          <internalNodes>
            0 -1 64 -9.6401898190379143e-04</internalNodes>
          <leafValues>
            1.7045336961746216e-01 -2.9426333308219910e-01</leafValues></_>
        <_>
          <internalNodes>
            0 -1 391 2.0191988348960876e-01</internalNodes>
          <leafValues>
            -1.0227960348129272e-01 7.2614240646362305e-01</leafValues></_>
        <_>
          <internalNodes>
            0 -1 1359 -1.2118142331019044e-04</internalNodes>
          <leafValues>
            -5.3943294286727905e-01 1.1759570986032486e-01</leafValues></_>
        <_>
          <internalNodes>
            0 -1 961 7.4366312474012375e-03</internalNodes>
          <leafValues>
            -1.4808195829391479e-01 3.5776787996292114e-01</leafValues></_>
        <_>
          <internalNodes>
            0 -1 576 7.1295294910669327e-03</internalNodes>
          <leafValues>
            -6.1576779931783676e-02 5.0475597381591797e-01</leafValues></_>
        <_>
          <internalNodes>
            0 -1 570 -1.5010628849267960e-02</internalNodes>
          <leafValues>
            3.8958132266998291e-01 -1.1361339688301086e-01</leafValues></_>
        <_>
          <internalNodes>
            0 -1 555 -5.9940322535112500e-04</internalNodes>
          <leafValues>
            1.8941539525985718e-01 -2.1518093347549438e-01</leafValues></_>
        <_>
          <internalNodes>
            0 -1 299 3.5278059542179108e-02</internalNodes>
          <leafValues>
            -1.2950167059898376e-01 3.0455452203750610e-01</leafValues></_>
        <_>
          <internalNodes>
            0 -1 212 3.3170741796493530e-01</internalNodes>
          <leafValues>
            5.9912383556365967e-02 -6.8602824211120605e-01</leafValues></_>
        <_>
          <internalNodes>
            0 -1 543 1.0012136772274971e-02</internalNodes>
          <leafValues>
            -7.1773491799831390e-02 5.5711567401885986e-01</leafValues></_>
        <_>
          <internalNodes>
            0 -1 4 -2.8927167877554893e-03</internalNodes>
          <leafValues>
            -3.2631880044937134e-01 1.2114927917718887e-01</leafValues></_>
        <_>
          <internalNodes>
            0 -1 4 2.8535607270896435e-03</internalNodes>
          <leafValues>
            1.2353918701410294e-01 -3.5464519262313843e-01</leafValues></_>
        <_>
          <internalNodes>
            0 -1 1153 -2.6010847650468349e-03</internalNodes>
          <leafValues>
            -8.6666733026504517e-01 3.7266518920660019e-02</leafValues></_>
        <_>
          <internalNodes>
            0 -1 99 -1.0218511521816254e-01</internalNodes>
          <leafValues>
            -7.7362108230590820e-01 3.4102916717529297e-02</leafValues></_>
        <_>
          <internalNodes>
            0 -1 263 -6.3246503472328186e-02</internalNodes>
          <leafValues>
            -6.5988534688949585e-01 4.5878630131483078e-02</leafValues></_>
        <_>
          <internalNodes>
            0 -1 390 -1.4695061370730400e-02</internalNodes>
          <leafValues>
            4.4436755776405334e-01 -8.7605662643909454e-02</leafValues></_>
        <_>
          <internalNodes>
            0 -1 1160 -1.7386057879775763e-04</internalNodes>
          <leafValues>
            2.7042925357818604e-01 -1.3206861913204193e-01</leafValues></_>
        <_>
          <internalNodes>
            0 -1 1225 6.6516185179352760e-03</internalNodes>
          <leafValues>
            -1.2089536339044571e-01 3.0554598569869995e-01</leafValues></_>
        <_>
          <internalNodes>
            0 -1 991 -1.3679901603609324e-03</internalNodes>
          <leafValues>
            -6.7356848716735840e-01 5.5145211517810822e-02</leafValues></_>
        <_>
          <internalNodes>
            0 -1 274 -1.7021654639393091e-04</internalNodes>
          <leafValues>
            -2.9450002312660217e-01 1.1128248274326324e-01</leafValues></_>
        <_>
          <internalNodes>
            0 -1 76 -8.3828128874301910e-02</internalNodes>
          <leafValues>
            3.3463725447654724e-01 -1.1071839928627014e-01</leafValues></_>
        <_>
          <internalNodes>
            0 -1 702 -2.6458520442247391e-03</internalNodes>
          <leafValues>
            -8.5229641199111938e-01 4.6055946499109268e-02</leafValues></_>
        <_>
          <internalNodes>
            0 -1 1022 -2.5252923369407654e-03</internalNodes>
          <leafValues>
            5.1398783922195435e-01 -7.6592296361923218e-02</leafValues></_>
        <_>
          <internalNodes>
            0 -1 1252 -1.2222919031046331e-04</internalNodes>
          <leafValues>
            -4.8366326093673706e-01 7.7299326658248901e-02</leafValues></_>
        <_>
          <internalNodes>
            0 -1 1396 1.4899508096277714e-03</internalNodes>
          <leafValues>
            -1.3023230433464050e-01 2.6685121655464172e-01</leafValues></_>
        <_>
          <internalNodes>
            0 -1 1117 2.2012824192643166e-03</internalNodes>
          <leafValues>
            -1.6039028763771057e-01 2.4762275815010071e-01</leafValues></_>
        <_>
          <internalNodes>
            0 -1 981 -5.7762032374739647e-03</internalNodes>
          <leafValues>
            2.7313724160194397e-01 -1.5046171844005585e-01</leafValues></_>
        <_>
          <internalNodes>
            0 -1 1364 5.3944371640682220e-02</internalNodes>
          <leafValues>
            -7.0601455867290497e-02 4.7969314455986023e-01</leafValues></_>
        <_>
          <internalNodes>
            0 -1 315 -3.5432554781436920e-02</internalNodes>
          <leafValues>
            5.0015139579772949e-01 -6.6800065338611603e-02</leafValues></_>
        <_>
          <internalNodes>
            0 -1 633 3.6509503843262792e-04</internalNodes>
          <leafValues>
            -1.4103037118911743e-01 2.6094853878021240e-01</leafValues></_>
        <_>
          <internalNodes>
            0 -1 369 -3.2293222844600677e-02</internalNodes>
          <leafValues>
            4.1342014074325562e-01 -8.2533292472362518e-02</leafValues></_>
        <_>
          <internalNodes>
            0 -1 820 -3.7585049867630005e-03</internalNodes>
          <leafValues>
            -3.3229425549507141e-01 1.1818174272775650e-01</leafValues></_>
        <_>
          <internalNodes>
            0 -1 541 -2.8417449444532394e-02</internalNodes>
          <leafValues>
            2.8872671723365784e-01 -1.3918071985244751e-01</leafValues></_>
        <_>
          <internalNodes>
            0 -1 400 -1.3821952044963837e-02</internalNodes>
          <leafValues>
            -5.2821226418018341e-02 6.2701320648193359e-01</leafValues></_>
        <_>
          <internalNodes>
            0 -1 1076 -1.0478619951754808e-03</internalNodes>
          <leafValues>
            3.2343089580535889e-01 -1.1045846343040466e-01</leafValues></_>
        <_>
          <internalNodes>
            0 -1 123 1.5639684861525893e-03</internalNodes>
          <leafValues>
            8.9065983891487122e-02 -4.7822853922843933e-01</leafValues></_>
        <_>
          <internalNodes>
            0 -1 1114 -2.1412454079836607e-03</internalNodes>
          <leafValues>
            -8.3130455017089844e-01 3.5290263593196869e-02</leafValues></_>
        <_>
          <internalNodes>
            0 -1 1300 -1.0637403465807438e-03</internalNodes>
          <leafValues>
            3.7698525190353394e-01 -9.6366696059703827e-02</leafValues></_>
        <_>
          <internalNodes>
            0 -1 759 2.2226716391742229e-03</internalNodes>
          <leafValues>
            -1.2881840765476227e-01 2.7248170971870422e-01</leafValues></_>
        <_>
          <internalNodes>
            0 -1 837 4.3251002207398415e-03</internalNodes>
          <leafValues>
            5.7951662689447403e-02 -6.6595053672790527e-01</leafValues></_>
        <_>
          <internalNodes>
            0 -1 766 -2.7322876849211752e-04</internalNodes>
          <leafValues>
            2.9931455850601196e-01 -1.1990008503198624e-01</leafValues></_>
        <_>
          <internalNodes>
            0 -1 1308 7.1156257763504982e-03</internalNodes>
          <leafValues>
            -4.5487478375434875e-02 6.7167431116104126e-01</leafValues></_>
        <_>
          <internalNodes>
            0 -1 1001 -1.5925792104098946e-04</internalNodes>
          <leafValues>
            1.7870277166366577e-01 -2.0543769001960754e-01</leafValues></_>
        <_>
          <internalNodes>
            0 -1 131 1.6278295079246163e-03</internalNodes>
          <leafValues>
            6.0195907950401306e-02 -6.1432415246963501e-01</leafValues></_>
        <_>
          <internalNodes>
            0 -1 793 9.8519329912960529e-04</internalNodes>
          <leafValues>
            -1.1773663014173508e-01 3.5287994146347046e-01</leafValues></_>
        <_>
          <internalNodes>
            0 -1 539 1.3703290605917573e-03</internalNodes>
          <leafValues>
            -7.8657470643520355e-02 4.1079041361808777e-01</leafValues></_>
        <_>
          <internalNodes>
            0 -1 1111 4.7405809164047241e-03</internalNodes>
          <leafValues>
            -1.4292678236961365e-01 2.3349431157112122e-01</leafValues></_>
        <_>
          <internalNodes>
            0 -1 1410 9.2314579524099827e-04</internalNodes>
          <leafValues>
            -3.0504646897315979e-01 1.2445840984582901e-01</leafValues></_>
        <_>
          <internalNodes>
            0 -1 867 -1.0172920301556587e-03</internalNodes>
          <leafValues>
            4.0631702542304993e-01 -8.8433928787708282e-02</leafValues></_>
        <_>
          <internalNodes>
            0 -1 236 4.0200876537710428e-04</internalNodes>
          <leafValues>
            -8.4087133407592773e-02 3.8256043195724487e-01</leafValues></_>
        <_>
          <internalNodes>
            0 -1 747 6.0157859697937965e-03</internalNodes>
          <leafValues>
            8.4690742194652557e-02 -4.5647954940795898e-01</leafValues></_>
        <_>
          <internalNodes>
            0 -1 568 6.7765433341264725e-03</internalNodes>
          <leafValues>
            -9.3504495918750763e-02 3.9954179525375366e-01</leafValues></_>
        <_>
          <internalNodes>
            0 -1 1233 1.9968417473137379e-04</internalNodes>
          <leafValues>
            -2.7906313538551331e-01 1.2709112465381622e-01</leafValues></_>
        <_>
          <internalNodes>
            0 -1 1257 2.0375172607600689e-03</internalNodes>
          <leafValues>
            1.8816526234149933e-01 -2.0356994867324829e-01</leafValues></_>
        <_>
          <internalNodes>
            0 -1 999 -1.0327944532036781e-02</internalNodes>
          <leafValues>
            -4.1727498173713684e-02 8.2135450839996338e-01</leafValues></_>
        <_>
          <internalNodes>
            0 -1 1288 -1.7317909805569798e-04</internalNodes>
          <leafValues>
            -4.4493371248245239e-01 8.6689114570617676e-02</leafValues></_>
        <_>
          <internalNodes>
            0 -1 1460 8.8037932291626930e-03</internalNodes>
          <leafValues>
            5.0422921776771545e-02 -6.5942782163619995e-01</leafValues></_>
        <_>
          <internalNodes>
            0 -1 1165 -8.1531499745324254e-05</internalNodes>
          <leafValues>
            2.1570335328578949e-01 -1.6179211437702179e-01</leafValues></_>
        <_>
          <internalNodes>
            0 -1 767 5.2342680282890797e-03</internalNodes>
          <leafValues>
            4.6366263180971146e-02 -8.4306502342224121e-01</leafValues></_>
        <_>
          <internalNodes>
            0 -1 1179 3.8019856438040733e-03</internalNodes>
          <leafValues>
            -2.4417878687381744e-01 1.2407837808132172e-01</leafValues></_>
        <_>
          <internalNodes>
            0 -1 941 -6.8472820566967130e-04</internalNodes>
          <leafValues>
            3.0544295907020569e-01 -1.1330287903547287e-01</leafValues></_>
        <_>
          <internalNodes>
            0 -1 1158 2.0140581182204187e-04</internalNodes>
          <leafValues>
            -1.0072385519742966e-01 3.2949665188789368e-01</leafValues></_>
        <_>
          <internalNodes>
            0 -1 1387 -1.3009719259571284e-04</internalNodes>
          <leafValues>
            -3.7472739815711975e-01 1.0385441035032272e-01</leafValues></_>
        <_>
          <internalNodes>
            0 -1 178 8.6741376435384154e-04</internalNodes>
          <leafValues>
            4.9099884927272797e-02 -6.3091433048248291e-01</leafValues></_>
        <_>
          <internalNodes>
            0 -1 1030 -5.4486818611621857e-02</internalNodes>
          <leafValues>
            3.0908176302909851e-01 -1.1700866371393204e-01</leafValues></_>
        <_>
          <internalNodes>
            0 -1 1019 9.2555638402700424e-03</internalNodes>
          <leafValues>
            -6.3299417495727539e-02 5.2836143970489502e-01</leafValues></_>
        <_>
          <internalNodes>
            0 -1 1331 6.4852094510570168e-05</internalNodes>
          <leafValues>
            1.3162763416767120e-01 -2.6586136221885681e-01</leafValues></_>
        <_>
          <internalNodes>
            0 -1 991 1.7604061868041754e-03</internalNodes>
          <leafValues>
            5.7301230728626251e-02 -6.0353112220764160e-01</leafValues></_>
        <_>
          <internalNodes>
            0 -1 1392 -3.8538845255970955e-03</internalNodes>
          <leafValues>
            6.4753139019012451e-01 -6.2647134065628052e-02</leafValues></_></weakClassifiers></_>
    <!-- stage 9 -->
    <_>
      <maxWeakCount>84</maxWeakCount>
      <stageThreshold>-2.0152090489864349e-01</stageThreshold>
      <weakClassifiers>
        <_>
          <internalNodes>
            0 -1 26 -1.3547736220061779e-02</internalNodes>
          <leafValues>
            7.1506851911544800e-01 2.8888890147209167e-01</leafValues></_>
        <_>
          <internalNodes>
            0 -1 411 5.7117339223623276e-02</internalNodes>
          <leafValues>
            -2.5715479254722595e-01 2.9069966077804565e-01</leafValues></_>
        <_>
          <internalNodes>
            0 -1 355 1.2654435122385621e-03</internalNodes>
          <leafValues>
            -4.0807273983955383e-01 1.2654192745685577e-01</leafValues></_>
        <_>
          <internalNodes>
            0 -1 120 7.1683414280414581e-03</internalNodes>
          <leafValues>
            9.1239415109157562e-02 -5.3705269098281860e-01</leafValues></_>
        <_>
          <internalNodes>
            0 -1 1371 2.8904914855957031e-02</internalNodes>
          <leafValues>
