<?xml version="1.0"?>
<opencv_storage>
<stage7>
  <maxWeakCount>77</maxWeakCount>
  <stageThreshold>-2.1420101821422577e-01</stageThreshold>
  <weakClassifiers>
    <_>
      <internalNodes>
        0 -1 96725 -9.0120779350399971e-03</internalNodes>
      <leafValues>
        -2.1621622145175934e-01 6.5136057138442993e-01</leafValues></_>
    <_>
      <internalNodes>
        0 -1 50124 1.0527906939387321e-02</internalNodes>
      <leafValues>
        2.5582396984100342e-01 -3.7558171153068542e-01</leafValues></_>
    <_>
      <internalNodes>
        0 -1 106743 -1.4441375969909132e-04</internalNodes>
      <leafValues>
        -6.5516597032546997e-01 8.9854069054126740e-02</leafValues></_>
    <_>
      <internalNodes>
        0 -1 162287 2.9414063319563866e-03</internalNodes>
      <leafValues>
        1.5914803743362427e-01 -3.7224009633064270e-01</leafValues></_>
    <_>
      <internalNodes>
        0 -1 2154 -6.2483362853527069e-03</internalNodes>
      <leafValues>
        -4.6274128556251526e-01 1.0608454793691635e-01</leafValues></_>
    <_>
      <internalNodes>
        0 -1 49433 4.3916739523410797e-03</internalNodes>
      <leafValues>
        -1.2454701215028763e-01 3.9068779349327087e-01</leafValues></_>
    <_>
      <internalNodes>
        0 -1 162322 -1.5831613563932478e-04</internalNodes>
      <leafValues>
        -4.6137407422065735e-01 7.6168186962604523e-02</leafValues></_>
    <_>
      <internalNodes>
        0 -1 1384 -6.2942542135715485e-02</internalNodes>
      <leafValues>
        2.2345869243144989e-01 -2.0792461931705475e-01</leafValues></_>
    <_>
      <internalNodes>
        0 -1 124331 -5.4641785100102425e-03</internalNodes>
      <leafValues>
        2.5889560580253601e-01 -1.5463608503341675e-01</leafValues></_>
    <_>
      <internalNodes>
        0 -1 131535 -1.1572347721084952e-03</internalNodes>
      <leafValues>
        3.2963714003562927e-01 -1.5691977739334106e-01</leafValues></_>
    <_>
      <internalNodes>
        0 -1 49718 -1.9643884152173996e-02</internalNodes>
      <leafValues>
        1.1643994599580765e-01 -3.9291048049926758e-01</leafValues></_>
    <_>
      <internalNodes>
        0 -1 117866 2.5836427230387926e-03</internalNodes>
      <leafValues>
        6.0931317508220673e-02 -6.9411790370941162e-01</leafValues></_>
    <_>
      <internalNodes>
        0 -1 50256 -2.7932661771774292e-01</internalNodes>
      <leafValues>
        -6.3568967580795288e-01 6.3144125044345856e-02</leafValues></_>
    <_>
      <internalNodes>
        0 -1 111054 -4.0512003004550934e-02</internalNodes>
      <leafValues>
        -1.4571242034435272e-01 2.9840737581253052e-01</leafValues></_>
    <_>
      <internalNodes>
        0 -1 119635 -2.9059741063974798e-04</internalNodes>
      <leafValues>
        2.9805839061737061e-01 -1.5736189484596252e-01</leafValues></_>
    <_>
      <internalNodes>
        0 -1 57205 5.8251392329111695e-04</internalNodes>
      <leafValues>
        -1.2369821220636368e-01 3.3296823501586914e-01</leafValues></_>
    <_>
      <internalNodes>
        0 -1 100567 3.2012299634516239e-03</internalNodes>
      <leafValues>
        6.5973654389381409e-02 -7.0069026947021484e-01</leafValues></_>
    <_>
      <internalNodes>
        0 -1 78108 1.4645673334598541e-02</internalNodes>
      <leafValues>
        -1.2750688195228577e-01 3.5077586770057678e-01</leafValues></_>
    <_>
      <internalNodes>
        0 -1 52983 -6.2482975423336029e-02</internalNodes>
      <leafValues>
        7.5089091062545776e-01 -5.6168671697378159e-02</leafValues></_>
    <_>
      <internalNodes>
        0 -1 89760 6.7517124989535660e-05</internalNodes>
      <leafValues>
        1.5184333920478821e-01 -2.9397472739219666e-01</leafValues></_>
    <_>
      <internalNodes>
        0 -1 87974 2.7288047596812248e-02</internalNodes>
      <leafValues>
        -5.7676102966070175e-02 7.7963799238204956e-01</leafValues></_>
    <_>
      <internalNodes>
        0 -1 97400 -1.1493366910144687e-03</internalNodes>
      <leafValues>
        3.6426219344139099e-01 -1.0333817452192307e-01</leafValues></_>
    <_>
      <internalNodes>
        0 -1 162249 4.6098842285573483e-03</internalNodes>
      <leafValues>
        7.2884261608123779e-02 -5.6893485784530640e-01</leafValues></_>
    <_>
      <internalNodes>
        0 -1 132755 -2.6468149735592306e-04</internalNodes>
      <leafValues>
        3.1889021396636963e-01 -1.3640004396438599e-01</leafValues></_>
    <_>
      <internalNodes>
        0 -1 113372 4.4415881857275963e-03</internalNodes>
      <leafValues>
        -1.2597687542438507e-01 3.1206858158111572e-01</leafValues></_>
    <_>
      <internalNodes>
        0 -1 13309 -3.8727064384147525e-04</internalNodes>
      <leafValues>
        -4.7064697742462158e-01 9.8088562488555908e-02</leafValues></_>
    <_>
      <internalNodes>
        0 -1 3148 4.1583180427551270e-03</internalNodes>
      <leafValues>
        8.8447749614715576e-02 -4.3141350150108337e-01</leafValues></_>
    <_>
      <internalNodes>
        0 -1 7451 -8.8754557073116302e-03</internalNodes>
      <leafValues>
        4.1363167762756348e-01 -1.2168289721012115e-01</leafValues></_>
    <_>
      <internalNodes>
        0 -1 69557 -6.5523979719728231e-04</internalNodes>
      <leafValues>
        4.2074084281921387e-01 -9.7037903964519501e-02</leafValues></_>
    <_>
      <internalNodes>
        0 -1 156516 4.2057439684867859e-02</internalNodes>
      <leafValues>
        -9.3480892479419708e-02 4.2817953228950500e-01</leafValues></_>
    <_>
      <internalNodes>
        0 -1 159402 -9.7628385992720723e-04</internalNodes>
      <leafValues>
        -5.0814568996429443e-01 9.1788068413734436e-02</leafValues></_>
    <_>
      <internalNodes>
        0 -1 126668 2.3999875411391258e-03</internalNodes>
      <leafValues>
        -1.3934570550918579e-01 2.8713881969451904e-01</leafValues></_>
    <_>
      <internalNodes>
        0 -1 146232 -5.8438675478100777e-03</internalNodes>
      <leafValues>
        3.3169054985046387e-01 -1.0639785230159760e-01</leafValues></_>
    <_>
      <internalNodes>
        0 -1 127129 8.1134252250194550e-03</internalNodes>
      <leafValues>
        -8.0830223858356476e-02 4.3813148140907288e-01</leafValues></_>
    <_>
      <internalNodes>
        0 -1 50961 1.5125888586044312e-01</internalNodes>
      <leafValues>
        -5.7416852563619614e-02 5.7515156269073486e-01</leafValues></_>
    <_>
      <internalNodes>
        0 -1 118204 -3.5113327205181122e-02</internalNodes>
      <leafValues>
        3.6070847511291504e-01 -1.2702934443950653e-01</leafValues></_>
    <_>
      <internalNodes>
        0 -1 156572 -6.9462023675441742e-03</internalNodes>
      <leafValues>
        4.6718764305114746e-01 -8.0805048346519470e-02</leafValues></_>
    <_>
      <internalNodes>
        0 -1 157601 -2.1776088033220731e-05</internalNodes>
      <leafValues>
        -2.2324864566326141e-01 1.8071471154689789e-01</leafValues></_>
    <_>
      <internalNodes>
        0 -1 13276 -8.5163384210318327e-04</internalNodes>
      <leafValues>
        3.6214113235473633e-01 -1.1303306370973587e-01</leafValues></_>
    <_>
      <internalNodes>
        0 -1 50242 -3.6502752453088760e-02</internalNodes>
      <leafValues>
        3.5860523581504822e-01 -9.6766531467437744e-02</leafValues></_>
    <_>
      <internalNodes>
        0 -1 68145 1.4770410954952240e-02</internalNodes>
      <leafValues>
        -1.0205967724323273e-01 3.8954544067382812e-01</leafValues></_>
    <_>
      <internalNodes>
        0 -1 37981 -1.3524359383154660e-04</internalNodes>
      <leafValues>
        -2.7979499101638794e-01 1.3917796313762665e-01</leafValues></_>
    <_>
      <internalNodes>
        0 -1 106788 2.0514249627012759e-04</internalNodes>
      <leafValues>
        8.4394589066505432e-02 -4.1819161176681519e-01</leafValues></_>
    <_>
      <internalNodes>
        0 -1 113132 9.0393638238310814e-03</internalNodes>
      <leafValues>
        -1.3240510225296021e-01 2.9656326770782471e-01</leafValues></_>
    <_>
      <internalNodes>
        0 -1 71990 1.0836346447467804e-01</internalNodes>
      <leafValues>
        1.0769326984882355e-01 -3.7415176630020142e-01</leafValues></_>
    <_>
      <internalNodes>
        0 -1 3258 -4.3756499886512756e-02</internalNodes>
      <leafValues>
        3.5276386141777039e-01 -1.2874101102352142e-01</leafValues></_>
    <_>
      <internalNodes>
        0 -1 128954 9.9436042364686728e-04</internalNodes>
      <leafValues>
        -9.3959555029869080e-02 4.3377777934074402e-01</leafValues></_>
    <_>
      <internalNodes>
        0 -1 162311 -2.3488067381549627e-04</internalNodes>
      <leafValues>
        -4.2024761438369751e-01 1.0063895583152771e-01</leafValues></_>
    <_>
      <internalNodes>
        0 -1 2779 5.8586753904819489e-02</internalNodes>
      <leafValues>
        -1.0630062222480774e-01 3.8362047076225281e-01</leafValues></_>
    <_>
      <internalNodes>
        0 -1 161886 4.6429005451500416e-03</internalNodes>
      <leafValues>
        -9.6515044569969177e-02 4.0892618894577026e-01</leafValues></_>
    <_>
      <internalNodes>
        0 -1 157780 8.1026577390730381e-04</internalNodes>
      <leafValues>
        -8.2466699182987213e-02 4.4458287954330444e-01</leafValues></_>
    <_>
      <internalNodes>
        0 -1 12002 3.7795200943946838e-02</internalNodes>
      <leafValues>
        6.1683826148509979e-02 -6.5859168767929077e-01</leafValues></_>
    <_>
      <internalNodes>
        0 -1 162183 -1.8522379919886589e-02</internalNodes>
      <leafValues>
        -7.8415507078170776e-01 4.2463168501853943e-02</leafValues></_>
    <_>
      <internalNodes>
        0 -1 26588 -1.6090400516986847e-02</internalNodes>
      <leafValues>
        5.4138511419296265e-01 -8.5093639791011810e-02</leafValues></_>
    <_>
      <internalNodes>
        0 -1 79013 -6.4049214124679565e-03</internalNodes>
      <leafValues>
        5.2068638801574707e-01 -6.3178285956382751e-02</leafValues></_>
    <_>
      <internalNodes>
        0 -1 117865 1.4624197501689196e-03</internalNodes>
      <leafValues>
        6.0647457838058472e-02 -6.8654525279998779e-01</leafValues></_>
    <_>
      <internalNodes>
        0 -1 61643 5.7136178016662598e-02</internalNodes>
      <leafValues>
        1.0091385990381241e-01 -3.5381129384040833e-01</leafValues></_>
    <_>
      <internalNodes>
        0 -1 80772 -3.1744778156280518e-02</internalNodes>
      <leafValues>
        -6.0346198081970215e-01 6.5726540982723236e-02</leafValues></_>
    <_>
      <internalNodes>
        0 -1 162099 -1.5976243957993574e-05</internalNodes>
      <leafValues>
        -3.5429775714874268e-01 9.6098951995372772e-02</leafValues></_>
    <_>
      <internalNodes>
        0 -1 117865 -1.5593492425978184e-03</internalNodes>
      <leafValues>
        -6.2452703714370728e-01 5.8800593018531799e-02</leafValues></_>
    <_>
      <internalNodes>
        0 -1 60418 1.7861790256574750e-03</internalNodes>
      <leafValues>
        -3.1363642215728760e-01 1.2209905683994293e-01</leafValues></_>
    <_>
      <internalNodes>
        0 -1 161940 1.1157150584040210e-04</internalNodes>
      <leafValues>
        1.5265095233917236e-01 -2.3855711519718170e-01</leafValues></_>
    <_>
      <internalNodes>
        0 -1 161908 -5.8759214880410582e-05</internalNodes>
      <leafValues>
        -3.8471597433090210e-01 9.7327008843421936e-02</leafValues></_>
    <_>
      <internalNodes>
        0 -1 154942 -3.6373792681843042e-04</internalNodes>
      <leafValues>
        3.5626387596130371e-01 -1.1946138739585876e-01</leafValues></_>
    <_>
      <internalNodes>
        0 -1 79900 2.7020839042961597e-03</internalNodes>
      <leafValues>
        -7.4290096759796143e-02 4.8393487930297852e-01</leafValues></_>
    <_>
      <internalNodes>
        0 -1 60092 7.3676598258316517e-03</internalNodes>
      <leafValues>
        -7.5125314295291901e-02 4.3290749192237854e-01</leafValues></_>
    <_>
      <internalNodes>
        0 -1 69899 -2.1484768949449062e-03</internalNodes>
      <leafValues>
        4.1383564472198486e-01 -8.1453546881675720e-02</leafValues></_>
    <_>
      <internalNodes>
        0 -1 52840 3.1669188756495714e-03</internalNodes>
      <leafValues>
        -1.0756205767393112e-01 3.3916443586349487e-01</leafValues></_>
    <_>
      <internalNodes>
        0 -1 114403 2.1485260222107172e-03</internalNodes>
      <leafValues>
        7.7032968401908875e-02 -4.7440958023071289e-01</leafValues></_>
    <_>
      <internalNodes>
        0 -1 65533 3.1757169961929321e-01</internalNodes>
      <leafValues>
        -5.3593963384628296e-02 7.2112166881561279e-01</leafValues></_>
    <_>
      <internalNodes>
        0 -1 162156 -1.6847546794451773e-04</internalNodes>
      <leafValues>
        -3.0280360579490662e-01 1.1656066030263901e-01</leafValues></_>
    <_>
      <internalNodes>
        0 -1 152928 2.1918932907283306e-03</internalNodes>
      <leafValues>
        -1.3901001214981079e-01 2.6826423406600952e-01</leafValues></_>
    <_>
      <internalNodes>
        0 -1 143625 3.4999004565179348e-03</internalNodes>
      <leafValues>
        4.6337224543094635e-02 -7.8631877899169922e-01</leafValues></_>
    <_>
      <internalNodes>
        0 -1 86 -1.5732309548184276e-03</internalNodes>
      <leafValues>
        -3.3351540565490723e-01 9.8706215620040894e-02</leafValues></_>
    <_>
      <internalNodes>
        0 -1 50260 -6.1099510639905930e-03</internalNodes>
      <leafValues>
        2.2054243087768555e-01 -1.6811829805374146e-01</leafValues></_>
    <_>
      <internalNodes>
        0 -1 106801 -5.8461846492718905e-05</internalNodes>
      <leafValues>
        -2.0249831676483154e-01 1.9969889521598816e-01</leafValues></_>
    <_>
      <internalNodes>
        0 -1 113356 7.6921107247471809e-03</internalNodes>
      <leafValues>
        -7.0757098495960236e-02 5.7365405559539795e-01</leafValues></_></weakClassifiers></stage7>
</opencv_storage>
