<?xml version="1.0"?>
<opencv_storage>
<stage3>
  <maxWeakCount>53</maxWeakCount>
  <stageThreshold>-4.4312971830368042e-01</stageThreshold>
  <weakClassifiers>
    <_>
      <internalNodes>
        0 -1 26730 -8.2120206207036972e-03</internalNodes>
      <leafValues>
        7.5597089529037476e-01 7.6655052602291107e-02</leafValues></_>
    <_>
      <internalNodes>
        0 -1 86370 -8.8423471897840500e-03</internalNodes>
      <leafValues>
        -3.7976026535034180e-02 7.3313194513320923e-01</leafValues></_>
    <_>
      <internalNodes>
        0 -1 5010 7.5619532726705074e-03</internalNodes>
      <leafValues>
        1.7908997833728790e-01 -5.9540009498596191e-01</leafValues></_>
    <_>
      <internalNodes>
        0 -1 10432 2.9858628287911415e-02</internalNodes>
      <leafValues>
        -4.5352718234062195e-01 1.7485605180263519e-01</leafValues></_>
    <_>
      <internalNodes>
        0 -1 161948 -1.5819235704839230e-04</internalNodes>
      <leafValues>
        -5.5703985691070557e-01 1.3970017433166504e-01</leafValues></_>
    <_>
      <internalNodes>
        0 -1 8837 7.5849005952477455e-03</internalNodes>
      <leafValues>
        1.4084963500499725e-01 -5.2808541059494019e-01</leafValues></_>
    <_>
      <internalNodes>
        0 -1 57200 6.9935643114149570e-04</internalNodes>
      <leafValues>
        -2.0473301410675049e-01 5.2335381507873535e-01</leafValues></_>
    <_>
      <internalNodes>
        0 -1 13370 2.0215862896293402e-03</internalNodes>
      <leafValues>
        -4.0520665049552917e-01 2.4281220138072968e-01</leafValues></_>
    <_>
      <internalNodes>
        0 -1 160018 8.7658073753118515e-03</internalNodes>
      <leafValues>
        -1.9348278641700745e-01 4.3187445402145386e-01</leafValues></_>
    <_>
      <internalNodes>
        0 -1 38788 -8.8039953261613846e-03</internalNodes>
      <leafValues>
        4.4747638702392578e-01 -1.6441871225833893e-01</leafValues></_>
    <_>
      <internalNodes>
        0 -1 60838 -7.0744499564170837e-02</internalNodes>
      <leafValues>
        -7.4603617191314697e-01 1.1994756758213043e-01</leafValues></_>
    <_>
      <internalNodes>
        0 -1 12813 3.9227388333529234e-04</internalNodes>
      <leafValues>
        1.1725762486457825e-01 -5.7245981693267822e-01</leafValues></_>
    <_>
      <internalNodes>
        0 -1 98651 -1.2181377038359642e-02</internalNodes>
      <leafValues>
        -6.1585807800292969e-01 1.2020445615053177e-01</leafValues></_>
    <_>
      <internalNodes>
        0 -1 105140 -1.1253014206886292e-02</internalNodes>
      <leafValues>
        4.9222505092620850e-01 -1.8156860768795013e-01</leafValues></_>
    <_>
      <internalNodes>
        0 -1 87882 1.8377877771854401e-02</internalNodes>
      <leafValues>
        -1.4417944848537445e-01 4.7641229629516602e-01</leafValues></_>
    <_>
      <internalNodes>
        0 -1 112945 -1.7036310164257884e-03</internalNodes>
      <leafValues>
        5.1476228237152100e-01 -1.4720499515533447e-01</leafValues></_>
    <_>
      <internalNodes>
        0 -1 113379 1.0913526639342308e-02</internalNodes>
      <leafValues>
        -1.3134351372718811e-01 4.8632067441940308e-01</leafValues></_>
    <_>
      <internalNodes>
        0 -1 232 -4.9129903316497803e-02</internalNodes>
      <leafValues>
        3.1032162904739380e-01 -2.6295429468154907e-01</leafValues></_>
    <_>
      <internalNodes>
        0 -1 89040 1.1959990486502647e-02</internalNodes>
      <leafValues>
        -4.1357687115669250e-01 1.6802904009819031e-01</leafValues></_>
    <_>
      <internalNodes>
        0 -1 96046 -1.6960140783339739e-04</internalNodes>
      <leafValues>
        3.7170201539993286e-01 -1.9380223751068115e-01</leafValues></_>
    <_>
      <internalNodes>
        0 -1 18752 -9.7599074244499207e-02</internalNodes>
      <leafValues>
        -5.5611163377761841e-01 1.1789243668317795e-01</leafValues></_>
    <_>
      <internalNodes>
        0 -1 50068 -1.3958010822534561e-02</internalNodes>
      <leafValues>
        -5.6919950246810913e-01 1.0619076341390610e-01</leafValues></_>
    <_>
      <internalNodes>
        0 -1 29240 -1.0727390646934509e-02</internalNodes>
      <leafValues>
        2.8064933419227600e-01 -2.7383425831794739e-01</leafValues></_>
    <_>
      <internalNodes>
        0 -1 143495 6.6185847390443087e-04</internalNodes>
      <leafValues>
        -1.2473018467426300e-01 4.8580577969551086e-01</leafValues></_>
    <_>
      <internalNodes>
        0 -1 157028 3.3358554355800152e-03</internalNodes>
      <leafValues>
        -1.3723516464233398e-01 3.8971644639968872e-01</leafValues></_>
    <_>
      <internalNodes>
        0 -1 76432 -8.4674777463078499e-04</internalNodes>
      <leafValues>
        3.0449303984642029e-01 -1.8020109832286835e-01</leafValues></_>
    <_>
      <internalNodes>
        0 -1 136792 3.2946080318652093e-04</internalNodes>
      <leafValues>
        -1.4925697445869446e-01 4.1499415040016174e-01</leafValues></_>
    <_>
      <internalNodes>
        0 -1 161625 1.1604471132159233e-02</internalNodes>
      <leafValues>
        -1.1712651699781418e-01 4.9592465162277222e-01</leafValues></_>
    <_>
      <internalNodes>
        0 -1 156412 4.5442330883815885e-04</internalNodes>
      <leafValues>
        -1.4017598330974579e-01 4.0664264559745789e-01</leafValues></_>
    <_>
      <internalNodes>
        0 -1 127323 6.9982046261429787e-03</internalNodes>
      <leafValues>
        -1.0855002701282501e-01 4.8704376816749573e-01</leafValues></_>
    <_>
      <internalNodes>
        0 -1 162332 6.3822313677519560e-04</internalNodes>
      <leafValues>
        1.4728195965290070e-01 -4.1638374328613281e-01</leafValues></_>
    <_>
      <internalNodes>
        0 -1 127119 2.7131428942084312e-03</internalNodes>
      <leafValues>
        -1.0252748429775238e-01 5.8811265230178833e-01</leafValues></_>
    <_>
      <internalNodes>
        0 -1 132751 3.6175531568005681e-04</internalNodes>
      <leafValues>
        -1.4531476795673370e-01 3.6990979313850403e-01</leafValues></_>
    <_>
      <internalNodes>
        0 -1 142746 -1.2584712821990252e-03</internalNodes>
      <leafValues>
        3.8611850142478943e-01 -1.4038971066474915e-01</leafValues></_>
    <_>
      <internalNodes>
        0 -1 8183 8.9890719391405582e-04</internalNodes>
      <leafValues>
        1.2217062711715698e-01 -4.7094619274139404e-01</leafValues></_>
    <_>
      <internalNodes>
        0 -1 120358 4.7995150089263916e-04</internalNodes>
      <leafValues>
        -1.4272834360599518e-01 4.0495976805686951e-01</leafValues></_>
    <_>
      <internalNodes>
        0 -1 119007 -4.8330277204513550e-03</internalNodes>
      <leafValues>
        5.5127990245819092e-01 -1.0140761733055115e-01</leafValues></_>
    <_>
      <internalNodes>
        0 -1 31837 -4.2457821965217590e-01</internalNodes>
      <leafValues>
        -1.4175790548324585e-01 3.8647177815437317e-01</leafValues></_>
    <_>
      <internalNodes>
        0 -1 11891 -4.3694945052266121e-03</internalNodes>
      <leafValues>
        -6.9466018676757812e-01 8.8291205465793610e-02</leafValues></_>
    <_>
      <internalNodes>
        0 -1 109130 -1.3073261361569166e-03</internalNodes>
      <leafValues>
        4.2911812663078308e-01 -1.4409449696540833e-01</leafValues></_>
    <_>
      <internalNodes>
        0 -1 162287 -4.3624746613204479e-03</internalNodes>
      <leafValues>
        -3.9985555410385132e-01 1.4141012728214264e-01</leafValues></_>
    <_>
      <internalNodes>
        0 -1 38848 -9.5411119982600212e-03</internalNodes>
      <leafValues>
        4.1981449723243713e-01 -1.3372252881526947e-01</leafValues></_>
    <_>
      <internalNodes>
        0 -1 111525 -2.2208767768461257e-04</internalNodes>
      <leafValues>
        2.4490080773830414e-01 -2.3639400303363800e-01</leafValues></_>
    <_>
      <internalNodes>
        0 -1 106787 9.3387272208929062e-03</internalNodes>
      <leafValues>
        -1.1591978371143341e-01 4.9232128262519836e-01</leafValues></_>
    <_>
      <internalNodes>
        0 -1 16134 -4.1676461696624756e-03</internalNodes>
      <leafValues>
        3.5632398724555969e-01 -1.4442235231399536e-01</leafValues></_>
    <_>
      <internalNodes>
        0 -1 124381 -4.2716163443401456e-04</internalNodes>
      <leafValues>
        2.7694684267044067e-01 -2.0461259782314301e-01</leafValues></_>
    <_>
      <internalNodes>
        0 -1 151516 -1.9751796498894691e-03</internalNodes>
      <leafValues>
        3.8978284597396851e-01 -1.5186549723148346e-01</leafValues></_>
    <_>
      <internalNodes>
        0 -1 135862 -5.6558521464467049e-04</internalNodes>
      <leafValues>
        3.8462030887603760e-01 -1.5359890460968018e-01</leafValues></_>
    <_>
      <internalNodes>
        0 -1 144252 -2.2792399395257235e-03</internalNodes>
      <leafValues>
        -3.9841520786285400e-01 1.4614304900169373e-01</leafValues></_>
    <_>
      <internalNodes>
        0 -1 152313 3.8251972291618586e-03</internalNodes>
      <leafValues>
        -1.0668784379959106e-01 6.4967644214630127e-01</leafValues></_>
    <_>
      <internalNodes>
        0 -1 99108 1.3834016397595406e-02</internalNodes>
      <leafValues>
        1.0458412766456604e-01 -6.3351255655288696e-01</leafValues></_>
    <_>
      <internalNodes>
        0 -1 69042 -3.6402428522706032e-03</internalNodes>
      <leafValues>
        4.3606302142143250e-01 -1.2418184429407120e-01</leafValues></_>
    <_>
      <internalNodes>
        0 -1 161750 -1.5602592611685395e-04</internalNodes>
      <leafValues>
        -4.2113512754440308e-01 1.2524384260177612e-01</leafValues></_></weakClassifiers></stage3>
</opencv_storage>
