<?xml version="1.0"?>
<opencv_storage>
<stage6>
  <maxWeakCount>67</maxWeakCount>
  <stageThreshold>-2.7852120995521545e-01</stageThreshold>
  <weakClassifiers>
    <_>
      <internalNodes>
        0 -1 133723 -2.1293398458510637e-04</internalNodes>
      <leafValues>
        -1.1675126850605011e-01 6.6131132841110229e-01</leafValues></_>
    <_>
      <internalNodes>
        0 -1 38908 -3.6921710707247257e-03</internalNodes>
      <leafValues>
        3.6245027184486389e-01 -2.3268949985504150e-01</leafValues></_>
    <_>
      <internalNodes>
        0 -1 2337 -6.6493302583694458e-02</internalNodes>
      <leafValues>
        3.6577114462852478e-01 -2.1912057697772980e-01</leafValues></_>
    <_>
      <internalNodes>
        0 -1 159729 1.7866045527625829e-04</internalNodes>
      <leafValues>
        1.3987597823143005e-01 -5.4754221439361572e-01</leafValues></_>
    <_>
      <internalNodes>
        0 -1 11052 -3.8510202430188656e-03</internalNodes>
      <leafValues>
        -5.8048468828201294e-01 1.0962992906570435e-01</leafValues></_>
    <_>
      <internalNodes>
        0 -1 158211 3.7420291453599930e-02</internalNodes>
      <leafValues>
        -1.7684304714202881e-01 3.3808571100234985e-01</leafValues></_>
    <_>
      <internalNodes>
        0 -1 77817 -5.7941740378737450e-03</internalNodes>
      <leafValues>
        5.2974116802215576e-01 -1.0906208306550980e-01</leafValues></_>
    <_>
      <internalNodes>
        0 -1 38728 3.4368585329502821e-03</internalNodes>
      <leafValues>
        -9.7818598151206970e-02 5.9994852542877197e-01</leafValues></_>
    <_>
      <internalNodes>
        0 -1 150985 9.8548503592610359e-04</internalNodes>
      <leafValues>
        -1.2406896054744720e-01 3.7555599212646484e-01</leafValues></_>
    <_>
      <internalNodes>
        0 -1 60902 -5.8053210377693176e-02</internalNodes>
      <leafValues>
        -3.0949652194976807e-01 1.6484916210174561e-01</leafValues></_>
    <_>
      <internalNodes>
        0 -1 2172 5.9847114607691765e-03</internalNodes>
      <leafValues>
        1.3974836468696594e-01 -3.5887956619262695e-01</leafValues></_>
    <_>
      <internalNodes>
        0 -1 48474 2.2342316806316376e-02</internalNodes>
      <leafValues>
        -3.5237810015678406e-01 1.3311301171779633e-01</leafValues></_>
    <_>
      <internalNodes>
        0 -1 162216 1.5887176617980003e-02</internalNodes>
      <leafValues>
        6.7948080599308014e-02 -7.0665681362152100e-01</leafValues></_>
    <_>
      <internalNodes>
        0 -1 33199 2.1300628781318665e-01</internalNodes>
      <leafValues>
        -9.9535278975963593e-02 5.7935762405395508e-01</leafValues></_>
    <_>
      <internalNodes>
        0 -1 80744 4.3401354923844337e-03</internalNodes>
      <leafValues>
        -2.1357636153697968e-01 2.3513838648796082e-01</leafValues></_>
    <_>
      <internalNodes>
        0 -1 47 -6.2258387915790081e-03</internalNodes>
      <leafValues>
        4.2665937542915344e-01 -1.1781584471464157e-01</leafValues></_>
    <_>
      <internalNodes>
        0 -1 102813 -1.5904318541288376e-02</internalNodes>
      <leafValues>
        3.4933596849441528e-01 -1.2982089817523956e-01</leafValues></_>
    <_>
      <internalNodes>
        0 -1 31884 -3.2982956618070602e-03</internalNodes>
      <leafValues>
        4.3345564603805542e-01 -1.0992255061864853e-01</leafValues></_>
    <_>
      <internalNodes>
        0 -1 104012 2.0954252977389842e-04</internalNodes>
      <leafValues>
        -1.3922967016696930e-01 3.4325450658798218e-01</leafValues></_>
    <_>
      <internalNodes>
        0 -1 71424 -7.5217648409307003e-03</internalNodes>
      <leafValues>
        3.4662187099456787e-01 -1.4493669569492340e-01</leafValues></_>
    <_>
      <internalNodes>
        0 -1 116314 -1.9427631050348282e-02</internalNodes>
      <leafValues>
        5.3096795082092285e-01 -9.0479061007499695e-02</leafValues></_>
    <_>
      <internalNodes>
        0 -1 161728 1.1547747999429703e-03</internalNodes>
      <leafValues>
        -3.2073587179183960e-01 1.5590268373489380e-01</leafValues></_>
    <_>
      <internalNodes>
        0 -1 90310 -6.6093027591705322e-01</internalNodes>
      <leafValues>
        -7.0733791589736938e-01 6.0665562748908997e-02</leafValues></_>
    <_>
      <internalNodes>
        0 -1 560 -5.3023952059447765e-03</internalNodes>
      <leafValues>
        -3.6479496955871582e-01 1.1837486922740936e-01</leafValues></_>
    <_>
      <internalNodes>
        0 -1 480 2.5737062096595764e-03</internalNodes>
      <leafValues>
        1.3312986493110657e-01 -3.3160382509231567e-01</leafValues></_>
    <_>
      <internalNodes>
        0 -1 103164 1.0216903174296021e-03</internalNodes>
      <leafValues>
        7.2753094136714935e-02 -5.8979851007461548e-01</leafValues></_>
    <_>
      <internalNodes>
        0 -1 85781 2.2278708638623357e-04</internalNodes>
      <leafValues>
        -1.7325568199157715e-01 2.7657496929168701e-01</leafValues></_>
    <_>
      <internalNodes>
        0 -1 84149 -4.8301799688488245e-04</internalNodes>
      <leafValues>
        2.3713149130344391e-01 -1.7775838077068329e-01</leafValues></_>
    <_>
      <internalNodes>
        0 -1 113110 3.5159499384462833e-03</internalNodes>
      <leafValues>
        -1.2498458474874496e-01 3.2491526007652283e-01</leafValues></_>
    <_>
      <internalNodes>
        0 -1 18214 4.1338711977005005e-02</internalNodes>
      <leafValues>
        -4.0991451591253281e-02 9.2995542287826538e-01</leafValues></_>
    <_>
      <internalNodes>
        0 -1 54103 -6.6942334175109863e-02</internalNodes>
      <leafValues>
        -7.8671805560588837e-02 4.6941035985946655e-01</leafValues></_>
    <_>
      <internalNodes>
        0 -1 8816 -1.1052577756345272e-02</internalNodes>
      <leafValues>
        1.2517108023166656e-01 -4.1616594791412354e-01</leafValues></_>
    <_>
      <internalNodes>
        0 -1 155993 9.8098563030362129e-03</internalNodes>
      <leafValues>
        -8.0008007586002350e-02 5.5993580818176270e-01</leafValues></_>
    <_>
      <internalNodes>
        0 -1 72024 -1.3909789919853210e-01</internalNodes>
      <leafValues>
        6.1944496631622314e-01 -5.8366805315017700e-02</leafValues></_>
    <_>
      <internalNodes>
        0 -1 5589 1.1233028024435043e-01</internalNodes>
      <leafValues>
        -9.8820745944976807e-02 4.3115049600601196e-01</leafValues></_>
    <_>
      <internalNodes>
        0 -1 125851 -1.1442450806498528e-02</internalNodes>
      <leafValues>
        5.0845307111740112e-01 -8.3439223468303680e-02</leafValues></_>
    <_>
      <internalNodes>
        0 -1 79046 -1.8336426466703415e-02</internalNodes>
      <leafValues>
        5.2356648445129395e-01 -6.8119294941425323e-02</leafValues></_>
    <_>
      <internalNodes>
        0 -1 113711 1.3240757584571838e-01</internalNodes>
      <leafValues>
        6.7956395447254181e-02 -6.2646639347076416e-01</leafValues></_>
    <_>
      <internalNodes>
        0 -1 93546 -8.3418518304824829e-02</internalNodes>
      <leafValues>
        -5.7218188047409058e-01 6.0541957616806030e-02</leafValues></_>
    <_>
      <internalNodes>
        0 -1 147753 1.2033820385113358e-03</internalNodes>
      <leafValues>
        -1.2197240442037582e-01 3.2012543082237244e-01</leafValues></_>
    <_>
      <internalNodes>
        0 -1 52872 -1.2886911630630493e-02</internalNodes>
      <leafValues>
        5.7918345928192139e-01 -5.8494418859481812e-02</leafValues></_>
    <_>
      <internalNodes>
        0 -1 116527 -1.5782732516527176e-03</internalNodes>
      <leafValues>
        5.2720572799444199e-02 -7.6051557064056396e-01</leafValues></_>
    <_>
      <internalNodes>
        0 -1 38464 -3.7159293424338102e-03</internalNodes>
      <leafValues>
        3.2776948809623718e-01 -1.2215231359004974e-01</leafValues></_>
    <_>
      <internalNodes>
        0 -1 20892 -3.4233945608139038e-01</internalNodes>
      <leafValues>
        -5.4597929120063782e-02 6.4131730794906616e-01</leafValues></_>
    <_>
      <internalNodes>
        0 -1 9437 -1.3304999447427690e-04</internalNodes>
      <leafValues>
        -3.5864624381065369e-01 1.1951351165771484e-01</leafValues></_>
    <_>
      <internalNodes>
        0 -1 7177 -7.9741803929209709e-03</internalNodes>
      <leafValues>
        -5.6569027900695801e-01 6.3486702740192413e-02</leafValues></_>
    <_>
      <internalNodes>
        0 -1 162096 1.7118325922638178e-04</internalNodes>
      <leafValues>
        8.2532495260238647e-02 -4.6554878354072571e-01</leafValues></_>
    <_>
      <internalNodes>
        0 -1 71545 2.6079360395669937e-04</internalNodes>
      <leafValues>
        -1.0233175754547119e-01 4.5094144344329834e-01</leafValues></_>
    <_>
      <internalNodes>
        0 -1 3143 3.2589850015938282e-03</internalNodes>
      <leafValues>
        9.0757265686988831e-02 -4.5387959480285645e-01</leafValues></_>
    <_>
      <internalNodes>
        0 -1 124261 2.7350103482604027e-04</internalNodes>
      <leafValues>
        -1.1290986090898514e-01 3.5418948531150818e-01</leafValues></_>
    <_>
      <internalNodes>
        0 -1 65432 -1.1524294503033161e-02</internalNodes>
      <leafValues>
        2.4350887537002563e-01 -1.6244232654571533e-01</leafValues></_>
    <_>
      <internalNodes>
        0 -1 37769 1.2032651342451572e-02</internalNodes>
      <leafValues>
        -6.3333265483379364e-02 6.5283936262130737e-01</leafValues></_>
    <_>
      <internalNodes>
        0 -1 106645 -4.7261352301575243e-04</internalNodes>
      <leafValues>
        2.7872329950332642e-01 -1.2020965665578842e-01</leafValues></_>
    <_>
      <internalNodes>
        0 -1 59463 -1.7403874546289444e-02</internalNodes>
      <leafValues>
        -6.1393153667449951e-01 7.2927348315715790e-02</leafValues></_>
    <_>
      <internalNodes>
        0 -1 109653 2.7139708399772644e-03</internalNodes>
      <leafValues>
        9.0340897440910339e-02 -3.6822614073753357e-01</leafValues></_>
    <_>
      <internalNodes>
        0 -1 11803 -3.2560189720243216e-03</internalNodes>
      <leafValues>
        4.2624697089195251e-01 -8.7801724672317505e-02</leafValues></_>
    <_>
      <internalNodes>
        0 -1 12233 -9.8240067018195987e-05</internalNodes>
      <leafValues>
        -3.9177250862121582e-01 1.1481475830078125e-01</leafValues></_>
    <_>
      <internalNodes>
        0 -1 3248 -5.3834609687328339e-02</internalNodes>
      <leafValues>
        6.4591234922409058e-01 -6.5589360892772675e-02</leafValues></_>
    <_>
      <internalNodes>
        0 -1 161600 6.8713668733835220e-03</internalNodes>
      <leafValues>
        -7.3072053492069244e-02 4.7585725784301758e-01</leafValues></_>
    <_>
      <internalNodes>
        0 -1 161366 1.2649165000766516e-03</internalNodes>
      <leafValues>
        -1.7621748149394989e-01 2.4417527019977570e-01</leafValues></_>
    <_>
      <internalNodes>
        0 -1 159264 -7.0940274745225906e-03</internalNodes>
      <leafValues>
        -5.3712284564971924e-01 8.3621524274349213e-02</leafValues></_>
    <_>
      <internalNodes>
        0 -1 121720 -6.3989292830228806e-03</internalNodes>
      <leafValues>
        -4.2217916250228882e-01 8.4681101143360138e-02</leafValues></_>
    <_>
      <internalNodes>
        0 -1 91643 -6.1201313510537148e-03</internalNodes>
      <leafValues>
        3.1507265567779541e-01 -1.2436807900667191e-01</leafValues></_>
    <_>
      <internalNodes>
        0 -1 38788 -1.5096375718712807e-02</internalNodes>
      <leafValues>
        5.3270894289016724e-01 -7.8469328582286835e-02</leafValues></_>
    <_>
      <internalNodes>
        0 -1 116321 -2.8000753372907639e-02</internalNodes>
      <leafValues>
        6.5305638313293457e-01 -5.6367527693510056e-02</leafValues></_>
    <_>
      <internalNodes>
        0 -1 66786 -1.7527509480714798e-02</internalNodes>
      <leafValues>
        7.1827012300491333e-01 -4.1371319442987442e-02</leafValues></_>
    <_>
      <internalNodes>
        0 -1 130174 -5.5361650884151459e-03</internalNodes>
      <leafValues>
        -8.8024330139160156e-01 5.1785234361886978e-02</leafValues></_></weakClassifiers></stage6>
</opencv_storage>
