<?xml version="1.0"?>
<opencv_storage>
<stage1>
  <maxWeakCount>37</maxWeakCount>
  <stageThreshold>-6.4337021112442017e-01</stageThreshold>
  <weakClassifiers>
    <_>
      <internalNodes>
        0 -1 5156 -9.2317415401339531e-03</internalNodes>
      <leafValues>
        7.4446016550064087e-01 -2.0844326913356781e-01</leafValues></_>
    <_>
      <internalNodes>
        0 -1 34306 6.3251428306102753e-02</internalNodes>
      <leafValues>
        -4.9231123924255371e-01 4.4368186593055725e-01</leafValues></_>
    <_>
      <internalNodes>
        0 -1 26730 -1.5775388106703758e-02</internalNodes>
      <leafValues>
        4.0963995456695557e-01 -3.9386391639709473e-01</leafValues></_>
    <_>
      <internalNodes>
        0 -1 158359 7.4876388534903526e-03</internalNodes>
      <leafValues>
        -4.8700800538063049e-01 2.6112791895866394e-01</leafValues></_>
    <_>
      <internalNodes>
        0 -1 27773 -3.1986236572265625e-03</internalNodes>
      <leafValues>
        5.2024769783020020e-01 -2.2683045268058777e-01</leafValues></_>
    <_>
      <internalNodes>
        0 -1 25785 1.2328175362199545e-03</internalNodes>
      <leafValues>
        -5.5708259344100952e-01 1.8387654423713684e-01</leafValues></_>
    <_>
      <internalNodes>
        0 -1 153938 1.2940737651661038e-03</internalNodes>
      <leafValues>
        -2.4423305690288544e-01 4.4301408529281616e-01</leafValues></_>
    <_>
      <internalNodes>
        0 -1 10011 -4.6770637854933739e-03</internalNodes>
      <leafValues>
        1.9806481897830963e-01 -6.4794546365737915e-01</leafValues></_>
    <_>
      <internalNodes>
        0 -1 147057 1.2397809186950326e-03</internalNodes>
      <leafValues>
        -2.5399851799011230e-01 5.1429873704910278e-01</leafValues></_>
    <_>
      <internalNodes>
        0 -1 125830 1.1572118848562241e-02</internalNodes>
      <leafValues>
        -1.8545827269554138e-01 5.6805783510208130e-01</leafValues></_>
    <_>
      <internalNodes>
        0 -1 2129 -1.3864770880900323e-04</internalNodes>
      <leafValues>
        -4.8153945803642273e-01 2.2617678344249725e-01</leafValues></_>
    <_>
      <internalNodes>
        0 -1 85270 2.7040857821702957e-04</internalNodes>
      <leafValues>
        -2.2833789885044098e-01 4.9080488085746765e-01</leafValues></_>
    <_>
      <internalNodes>
        0 -1 153063 2.8026964515447617e-02</internalNodes>
      <leafValues>
        -2.1352723240852356e-01 5.0471872091293335e-01</leafValues></_>
    <_>
      <internalNodes>
        0 -1 162036 -3.3988506766036153e-04</internalNodes>
      <leafValues>
        -5.8372098207473755e-01 1.7748951911926270e-01</leafValues></_>
    <_>
      <internalNodes>
        0 -1 119919 -5.5539782624691725e-04</internalNodes>
      <leafValues>
        4.9434959888458252e-01 -2.3552285134792328e-01</leafValues></_>
    <_>
      <internalNodes>
        0 -1 117861 1.9258243264630437e-04</internalNodes>
      <leafValues>
        -1.8007612228393555e-01 5.0777256488800049e-01</leafValues></_>
    <_>
      <internalNodes>
        0 -1 54967 1.4725727960467339e-03</internalNodes>
      <leafValues>
        -1.8547601997852325e-01 5.1203012466430664e-01</leafValues></_>
    <_>
      <internalNodes>
        0 -1 114912 -3.1851284205913544e-02</internalNodes>
      <leafValues>
        3.0336606502532959e-01 -3.0558872222900391e-01</leafValues></_>
    <_>
      <internalNodes>
        0 -1 104742 2.3625977337360382e-04</internalNodes>
      <leafValues>
        -2.1887348592281342e-01 5.2239418029785156e-01</leafValues></_>
    <_>
      <internalNodes>
        0 -1 157205 3.5222219303250313e-03</internalNodes>
      <leafValues>
        -2.4278110265731812e-01 3.7382078170776367e-01</leafValues></_>
    <_>
      <internalNodes>
        0 -1 113754 3.9043562719598413e-04</internalNodes>
      <leafValues>
        -1.5806847810745239e-01 5.3883880376815796e-01</leafValues></_>
    <_>
      <internalNodes>
        0 -1 99326 -1.2195647694170475e-02</internalNodes>
      <leafValues>
        -8.7360894680023193e-01 1.0969512164592743e-01</leafValues></_>
    <_>
      <internalNodes>
        0 -1 6673 -1.5236882492899895e-02</internalNodes>
      <leafValues>
        1.6109855473041534e-01 -4.9655923247337341e-01</leafValues></_>
    <_>
      <internalNodes>
        0 -1 97135 -4.4351816177368164e-03</internalNodes>
      <leafValues>
        5.2164769172668457e-01 -1.5774632990360260e-01</leafValues></_>
    <_>
      <internalNodes>
        0 -1 19566 -9.1250449419021606e-02</internalNodes>
      <leafValues>
        -6.5556102991104126e-01 1.3246099650859833e-01</leafValues></_>
    <_>
      <internalNodes>
        0 -1 50015 -2.7630454860627651e-03</internalNodes>
      <leafValues>
        4.3345770239830017e-01 -2.0258527994155884e-01</leafValues></_>
    <_>
      <internalNodes>
        0 -1 17227 -1.1171502061188221e-02</internalNodes>
      <leafValues>
        6.2010937929153442e-01 -1.3396798074245453e-01</leafValues></_>
    <_>
      <internalNodes>
        0 -1 25968 -8.1740174209699035e-04</internalNodes>
      <leafValues>
        4.3237811326980591e-01 -1.6869240999221802e-01</leafValues></_>
    <_>
      <internalNodes>
        0 -1 105370 5.8807688765227795e-04</internalNodes>
      <leafValues>
        -1.6675968468189240e-01 5.0107586383819580e-01</leafValues></_>
    <_>
      <internalNodes>
        0 -1 158060 4.9220971763134003e-02</internalNodes>
      <leafValues>
        -1.2158423662185669e-01 6.4118790626525879e-01</leafValues></_>
    <_>
      <internalNodes>
        0 -1 104242 8.6405668407678604e-03</internalNodes>
      <leafValues>
        -1.4898349344730377e-01 5.1631885766983032e-01</leafValues></_>
    <_>
      <internalNodes>
        0 -1 132751 1.8635645392350852e-04</internalNodes>
      <leafValues>
        -1.7743094265460968e-01 4.4173803925514221e-01</leafValues></_>
    <_>
      <internalNodes>
        0 -1 131822 -2.0285472273826599e-03</internalNodes>
      <leafValues>
        5.6859028339385986e-01 -1.4905522763729095e-01</leafValues></_>
    <_>
      <internalNodes>
        0 -1 162097 -1.7300620675086975e-04</internalNodes>
      <leafValues>
        -5.6629073619842529e-01 1.6619980335235596e-01</leafValues></_>
    <_>
      <internalNodes>
        0 -1 41236 2.0350496470928192e-01</internalNodes>
      <leafValues>
        -1.3810852169990540e-01 6.3105952739715576e-01</leafValues></_>
    <_>
      <internalNodes>
        0 -1 66683 2.1644317894242704e-04</internalNodes>
      <leafValues>
        -1.7538927495479584e-01 5.2149605751037598e-01</leafValues></_>
    <_>
      <internalNodes>
        0 -1 113331 -6.6589992493391037e-03</internalNodes>
      <leafValues>
        -3.4650892019271851e-01 2.4295194447040558e-01</leafValues></_></weakClassifiers></stage1>
</opencv_storage>
