<?xml version="1.0"?>
<opencv_storage>
<stage9>
  <maxWeakCount>84</maxWeakCount>
  <stageThreshold>-2.0152090489864349e-01</stageThreshold>
  <weakClassifiers>
    <_>
      <internalNodes>
        0 -1 1026 -1.3547736220061779e-02</internalNodes>
      <leafValues>
        7.1506851911544800e-01 2.8888890147209167e-01</leafValues></_>
    <_>
      <internalNodes>
        0 -1 45919 5.7117339223623276e-02</internalNodes>
      <leafValues>
        -2.5715479254722595e-01 2.9069966077804565e-01</leafValues></_>
    <_>
      <internalNodes>
        0 -1 37959 1.2654435122385621e-03</internalNodes>
      <leafValues>
        -4.0807273983955383e-01 1.2654192745685577e-01</leafValues></_>
    <_>
      <internalNodes>
        0 -1 9461 7.1683414280414581e-03</internalNodes>
      <leafValues>
        9.1239415109157562e-02 -5.3705269098281860e-01</leafValues></_>
    <_>
      <internalNodes>
        0 -1 158211 2.8904914855957031e-02</internalNodes>
      <leafValues>
        -1.8454638123512268e-01 2.6716217398643494e-01</leafValues></_>
    <_>
      <internalNodes>
        0 -1 161182 1.6008401871658862e-04</internalNodes>
      <leafValues>
        1.0442937910556793e-01 -4.3357962369918823e-01</leafValues></_>
    <_>
      <internalNodes>
        0 -1 33 -4.2223893105983734e-02</internalNodes>
      <leafValues>
        1.3486315310001373e-01 -3.1988054513931274e-01</leafValues></_>
    <_>
      <internalNodes>
        0 -1 17761 -2.1380205452442169e-01</internalNodes>
      <leafValues>
        5.1470714807510376e-01 -1.3764081895351410e-01</leafValues></_>
    <_>
      <internalNodes>
        0 -1 135746 7.4441507458686829e-02</internalNodes>
      <leafValues>
        -1.4202384650707245e-01 2.8596901893615723e-01</leafValues></_>
    <_>
      <internalNodes>
        0 -1 157204 3.5531227476894855e-03</internalNodes>
      <leafValues>
        -1.2972508370876312e-01 3.3717802166938782e-01</leafValues></_>
    <_>
      <internalNodes>
        0 -1 81428 -1.6221135854721069e-02</internalNodes>
      <leafValues>
        5.0250536203384399e-01 -6.2556862831115723e-02</leafValues></_>
    <_>
      <internalNodes>
        0 -1 124675 -1.8686390831135213e-04</internalNodes>
      <leafValues>
        2.3440903425216675e-01 -1.4835655689239502e-01</leafValues></_>
    <_>
      <internalNodes>
        0 -1 109831 1.1999588459730148e-02</internalNodes>
      <leafValues>
        -9.9612645804882050e-02 5.4581606388092041e-01</leafValues></_>
    <_>
      <internalNodes>
        0 -1 53102 -5.6995980441570282e-02</internalNodes>
      <leafValues>
        -4.8174183815717697e-02 5.6916409730911255e-01</leafValues></_>
    <_>
      <internalNodes>
        0 -1 152867 -6.7001849412918091e-02</internalNodes>
      <leafValues>
        5.7301396131515503e-01 -5.4236307740211487e-02</leafValues></_>
    <_>
      <internalNodes>
        0 -1 137180 2.8824511915445328e-02</internalNodes>
      <leafValues>
        -5.2126083523035049e-02 5.3002953529357910e-01</leafValues></_>
    <_>
      <internalNodes>
        0 -1 129381 -2.4445024318993092e-03</internalNodes>
      <leafValues>
        6.9054096937179565e-02 -5.1764768362045288e-01</leafValues></_>
    <_>
      <internalNodes>
        0 -1 37284 -7.4997521005570889e-04</internalNodes>
      <leafValues>
        2.3192833364009857e-01 -1.5737986564636230e-01</leafValues></_>
    <_>
      <internalNodes>
        0 -1 80691 9.9693410447798669e-05</internalNodes>
      <leafValues>
        1.1115030944347382e-01 -3.1802538037300110e-01</leafValues></_>
    <_>
      <internalNodes>
        0 -1 154798 2.6687236968427896e-03</internalNodes>
      <leafValues>
        -1.0810793936252594e-01 3.0489313602447510e-01</leafValues></_>
    <_>
      <internalNodes>
        0 -1 157680 4.1935651097446680e-04</internalNodes>
      <leafValues>
        1.0875687748193741e-01 -3.1572014093399048e-01</leafValues></_>
    <_>
      <internalNodes>
        0 -1 15057 -4.1566438972949982e-02</internalNodes>
      <leafValues>
        2.7628785371780396e-01 -1.2741793692111969e-01</leafValues></_>
    <_>
      <internalNodes>
        0 -1 38464 6.3716042786836624e-03</internalNodes>
      <leafValues>
        -8.3846576511859894e-02 4.8540893197059631e-01</leafValues></_>
    <_>
      <internalNodes>
        0 -1 1144 -4.3802252039313316e-03</internalNodes>
      <leafValues>
        -2.9691147804260254e-01 1.2722998857498169e-01</leafValues></_>
    <_>
      <internalNodes>
        0 -1 47056 1.1590241920202971e-03</internalNodes>
      <leafValues>
        -9.9336557090282440e-02 4.0845432877540588e-01</leafValues></_>
    <_>
      <internalNodes>
        0 -1 46101 -6.4157610759139061e-03</internalNodes>
      <leafValues>
        4.3504479527473450e-01 -7.8961983323097229e-02</leafValues></_>
    <_>
      <internalNodes>
        0 -1 37301 -4.6492386609315872e-03</internalNodes>
      <leafValues>
        5.0069499015808105e-01 -6.6174991428852081e-02</leafValues></_>
    <_>
      <internalNodes>
        0 -1 12534 -5.5627850815653801e-04</internalNodes>
      <leafValues>
        -4.4091397523880005e-01 8.2416690886020660e-02</leafValues></_>
    <_>
      <internalNodes>
        0 -1 147588 3.1104106456041336e-03</internalNodes>
      <leafValues>
        -1.2569390237331390e-01 2.8045609593391418e-01</leafValues></_>
    <_>
      <internalNodes>
        0 -1 97103 -5.5797433014959097e-04</internalNodes>
      <leafValues>
        3.3153000473976135e-01 -9.7119666635990143e-02</leafValues></_>
    <_>
      <internalNodes>
        0 -1 15814 -1.4709325507283211e-02</internalNodes>
      <leafValues>
        2.4455498158931732e-01 -1.3961660861968994e-01</leafValues></_>
    <_>
      <internalNodes>
        0 -1 51516 1.0637290775775909e-02</internalNodes>
      <leafValues>
        -5.8798164129257202e-02 5.8080697059631348e-01</leafValues></_>
    <_>
      <internalNodes>
        0 -1 36457 1.1968522332608700e-02</internalNodes>
      <leafValues>
        -1.1792615801095963e-01 2.8345546126365662e-01</leafValues></_>
    <_>
      <internalNodes>
        0 -1 158137 2.2201016545295715e-03</internalNodes>
      <leafValues>
        -1.3008327782154083e-01 2.8991580009460449e-01</leafValues></_>
    <_>
      <internalNodes>
        0 -1 97888 -6.8609195295721292e-04</internalNodes>
      <leafValues>
        3.4254434704780579e-01 -9.4594769179821014e-02</leafValues></_>
    <_>
      <internalNodes>
        0 -1 111901 -4.5280769700184464e-04</internalNodes>
      <leafValues>
        2.2128728032112122e-01 -1.5520688891410828e-01</leafValues></_>
    <_>
      <internalNodes>
        0 -1 318 -4.9651078879833221e-02</internalNodes>
      <leafValues>
        1.3015986979007721e-01 -2.5349551439285278e-01</leafValues></_>
    <_>
      <internalNodes>
        0 -1 102216 -2.4099482106976211e-04</internalNodes>
      <leafValues>
        2.0497791469097137e-01 -1.7275311052799225e-01</leafValues></_>
    <_>
      <internalNodes>
        0 -1 151071 -1.5915505588054657e-02</internalNodes>
      <leafValues>
        4.2839851975440979e-01 -7.5782045722007751e-02</leafValues></_>
    <_>
      <internalNodes>
        0 -1 36400 1.4348940458148718e-03</internalNodes>
      <leafValues>
        -1.6211095452308655e-01 2.0082466304302216e-01</leafValues></_>
    <_>
      <internalNodes>
        0 -1 162166 6.5120356157422066e-03</internalNodes>
      <leafValues>
        9.1383069753646851e-02 -3.7680116295814514e-01</leafValues></_>
    <_>
      <internalNodes>
        0 -1 139636 -2.3629284987691790e-04</internalNodes>
      <leafValues>
        3.1128898262977600e-01 -1.0562586039304733e-01</leafValues></_>
    <_>
      <internalNodes>
        0 -1 98640 -2.9069725424051285e-03</internalNodes>
      <leafValues>
        5.7108469307422638e-02 -5.8550065755844116e-01</leafValues></_>
    <_>
      <internalNodes>
        0 -1 151840 7.2417262708768249e-04</internalNodes>
      <leafValues>
        -1.0544387251138687e-01 3.6841014027595520e-01</leafValues></_>
    <_>
      <internalNodes>
        0 -1 161279 4.6198638156056404e-03</internalNodes>
      <leafValues>
        -8.9022286236286163e-02 3.5123315453529358e-01</leafValues></_>
    <_>
      <internalNodes>
        0 -1 159164 -1.2522058095782995e-03</internalNodes>
      <leafValues>
        -4.4009542465209961e-01 7.1023494005203247e-02</leafValues></_>
    <_>
      <internalNodes>
        0 -1 146405 -2.5850976817309856e-04</internalNodes>
      <leafValues>
        2.2457665205001831e-01 -1.4124000072479248e-01</leafValues></_>
    <_>
      <internalNodes>
        0 -1 101161 -2.1150223910808563e-02</internalNodes>
      <leafValues>
        -6.3331127166748047e-01 5.4489593952894211e-02</leafValues></_>
    <_>
      <internalNodes>
        0 -1 64461 -1.7610352486371994e-02</internalNodes>
      <leafValues>
        -4.8696704208850861e-02 7.3468172550201416e-01</leafValues></_>
    <_>
      <internalNodes>
        0 -1 40396 1.7249831557273865e-01</internalNodes>
      <leafValues>
        -5.9406939893960953e-02 4.9224671721458435e-01</leafValues></_>
    <_>
      <internalNodes>
        0 -1 130429 1.2631872296333313e-01</internalNodes>
      <leafValues>
        8.0700084567070007e-02 -4.6564084291458130e-01</leafValues></_>
    <_>
      <internalNodes>
        0 -1 13472 -2.1822289563715458e-03</internalNodes>
      <leafValues>
        -4.4233030080795288e-01 7.1549937129020691e-02</leafValues></_>
    <_>
      <internalNodes>
        0 -1 111461 -1.2391007039695978e-03</internalNodes>
      <leafValues>
        2.3495052754878998e-01 -1.5470696985721588e-01</leafValues></_>
    <_>
      <internalNodes>
        0 -1 162268 -1.2404943117871881e-04</internalNodes>
      <leafValues>
        -2.8934901952743530e-01 1.1202213913202286e-01</leafValues></_>
    <_>
      <internalNodes>
        0 -1 154086 -4.9892952665686607e-04</internalNodes>
      <leafValues>
        3.7181511521339417e-01 -8.7310612201690674e-02</leafValues></_>
    <_>
      <internalNodes>
        0 -1 104399 4.4744042679667473e-03</internalNodes>
      <leafValues>
        5.0944872200489044e-02 -6.3256537914276123e-01</leafValues></_>
    <_>
      <internalNodes>
        0 -1 143993 -1.6724795103073120e-02</internalNodes>
      <leafValues>
        4.8354923725128174e-02 -5.7977765798568726e-01</leafValues></_>
    <_>
      <internalNodes>
        0 -1 25679 -1.6865091398358345e-02</internalNodes>
      <leafValues>
        2.6821851730346680e-01 -1.2818576395511627e-01</leafValues></_>
    <_>
      <internalNodes>
        0 -1 12534 1.6614303458482027e-03</internalNodes>
      <leafValues>
        7.1109190583229065e-02 -4.9859768152236938e-01</leafValues></_>
    <_>
      <internalNodes>
        0 -1 37713 1.0359956882894039e-02</internalNodes>
      <leafValues>
        -1.2250226736068726e-01 2.7079567313194275e-01</leafValues></_>
    <_>
      <internalNodes>
        0 -1 85376 -2.1443940699100494e-02</internalNodes>
      <leafValues>
        3.2445803284645081e-01 -9.2948384582996368e-02</leafValues></_>
    <_>
      <internalNodes>
        0 -1 1811 8.6829217616468668e-04</internalNodes>
      <leafValues>
        -1.3483726978302002e-01 2.2505423426628113e-01</leafValues></_>
    <_>
      <internalNodes>
        0 -1 98976 -1.8454232485964894e-03</internalNodes>
      <leafValues>
        2.9300719499588013e-01 -1.1665014922618866e-01</leafValues></_>
    <_>
      <internalNodes>
        0 -1 121802 -6.0101624578237534e-02</internalNodes>
      <leafValues>
        3.7870100140571594e-01 -8.2849167287349701e-02</leafValues></_>
    <_>
      <internalNodes>
        0 -1 97656 4.7326582716777921e-04</internalNodes>
      <leafValues>
        -1.0018181055784225e-01 3.0891424417495728e-01</leafValues></_>
    <_>
      <internalNodes>
        0 -1 85839 2.7844849973917007e-03</internalNodes>
      <leafValues>
        -1.1757739633321762e-01 2.7110502123832703e-01</leafValues></_>
    <_>
      <internalNodes>
        0 -1 140703 8.8224862702190876e-04</internalNodes>
      <leafValues>
        7.2638072073459625e-02 -4.3510523438453674e-01</leafValues></_>
    <_>
      <internalNodes>
        0 -1 140602 -1.0118369013071060e-01</internalNodes>
      <leafValues>
        5.6201857328414917e-01 -6.1208408325910568e-02</leafValues></_>
    <_>
      <internalNodes>
        0 -1 48744 -9.7524921875447035e-04</internalNodes>
      <leafValues>
        3.6398723721504211e-01 -7.9997450113296509e-02</leafValues></_>
    <_>
      <internalNodes>
        0 -1 154643 -4.0554773295298219e-04</internalNodes>
      <leafValues>
        3.7545225024223328e-01 -8.2401141524314880e-02</leafValues></_>
    <_>
      <internalNodes>
        0 -1 153800 -6.8211886100471020e-03</internalNodes>
      <leafValues>
        3.7019816040992737e-01 -8.3750858902931213e-02</leafValues></_>
    <_>
      <internalNodes>
        0 -1 42882 -3.5864603705704212e-03</internalNodes>
      <leafValues>
        2.0691819489002228e-01 -1.4844493567943573e-01</leafValues></_>
    <_>
      <internalNodes>
        0 -1 116729 4.6499720774590969e-03</internalNodes>
      <leafValues>
        -7.7904582023620605e-02 3.6901181936264038e-01</leafValues></_>
    <_>
      <internalNodes>
        0 -1 139206 1.7718866001814604e-04</internalNodes>
      <leafValues>
        1.1348302662372589e-01 -2.8884470462799072e-01</leafValues></_>
    <_>
      <internalNodes>
        0 -1 121332 3.3070105127990246e-03</internalNodes>
      <leafValues>
        -1.6905996203422546e-01 1.9142329692840576e-01</leafValues></_>
    <_>
      <internalNodes>
        0 -1 133667 -2.3489464074373245e-03</internalNodes>
      <leafValues>
        5.3490307182073593e-02 -5.8076918125152588e-01</leafValues></_>
    <_>
      <internalNodes>
        0 -1 110696 -9.0778589248657227e-02</internalNodes>
      <leafValues>
        -6.5241388976573944e-02 6.1333805322647095e-01</leafValues></_>
    <_>
      <internalNodes>
        0 -1 11035 -6.3029071316123009e-03</internalNodes>
      <leafValues>
        1.4691492915153503e-01 -2.2553929686546326e-01</leafValues></_>
    <_>
      <internalNodes>
        0 -1 98579 -6.1117904260754585e-04</internalNodes>
      <leafValues>
        3.2123580574989319e-01 -9.8904751241207123e-02</leafValues></_>
    <_>
      <internalNodes>
        0 -1 162002 -1.3868874520994723e-04</internalNodes>
      <leafValues>
        -4.4276049733161926e-01 8.1073448061943054e-02</leafValues></_>
    <_>
      <internalNodes>
        0 -1 84734 8.4679573774337769e-03</internalNodes>
      <leafValues>
        3.4724187105894089e-02 -7.9609191417694092e-01</leafValues></_>
    <_>
      <internalNodes>
        0 -1 94868 -5.7324988301843405e-04</internalNodes>
      <leafValues>
        1.6441859304904938e-01 -1.8622031807899475e-01</leafValues></_>
    <_>
      <internalNodes>
        0 -1 125798 1.9051713170483708e-03</internalNodes>
      <leafValues>
        8.2245543599128723e-02 -4.1606238484382629e-01</leafValues></_>
    <_>
      <internalNodes>
        0 -1 13354 -1.2078194413334131e-03</internalNodes>
      <leafValues>
        2.4115268886089325e-01 -1.2938490509986877e-01</leafValues></_></weakClassifiers></stage9>
</opencv_storage>
