<?xml version="1.0"?>
<opencv_storage>
<stage4>
  <maxWeakCount>66</maxWeakCount>
  <stageThreshold>-1.6047736406326294e+00</stageThreshold>
  <weakClassifiers>
    <_>
      <internalNodes>
        0 -1 46058 1.8295577168464661e-01</internalNodes>
      <leafValues>
        -7.4720436334609985e-01 -3.8799414038658142e-01</leafValues></_>
    <_>
      <internalNodes>
        0 -1 26790 -1.0309834033250809e-02</internalNodes>
      <leafValues>
        3.8893394172191620e-02 -5.4512834548950195e-01</leafValues></_>
    <_>
      <internalNodes>
        0 -1 6 -3.4047238295897841e-04</internalNodes>
      <leafValues>
        -4.5679122209548950e-01 1.4337609708309174e-01</leafValues></_>
    <_>
      <internalNodes>
        0 -1 158361 1.6756977420300245e-03</internalNodes>
      <leafValues>
        -5.6066334247589111e-01 1.0384327918291092e-01</leafValues></_>
    <_>
      <internalNodes>
        0 -1 226 -4.4885024428367615e-02</internalNodes>
      <leafValues>
        2.0491708815097809e-01 -2.6995480060577393e-01</leafValues></_>
    <_>
      <internalNodes>
        0 -1 70701 -1.2797492672689259e-04</internalNodes>
      <leafValues>
        -5.0003689527511597e-01 1.0545087605714798e-01</leafValues></_>
    <_>
      <internalNodes>
        0 -1 70701 7.3019196861423552e-05</internalNodes>
      <leafValues>
        1.2530334293842316e-01 -4.2004048824310303e-01</leafValues></_>
    <_>
      <internalNodes>
        0 -1 100916 -4.3394368141889572e-02</internalNodes>
      <leafValues>
        3.8648539781570435e-01 -1.3845872879028320e-01</leafValues></_>
    <_>
      <internalNodes>
        0 -1 13371 2.3486600257456303e-03</internalNodes>
      <leafValues>
        -3.8163614273071289e-01 1.4477992057800293e-01</leafValues></_>
    <_>
      <internalNodes>
        0 -1 71253 -5.4853903129696846e-03</internalNodes>
      <leafValues>
        3.4075257182121277e-01 -1.4459699392318726e-01</leafValues></_>
    <_>
      <internalNodes>
        0 -1 15601 -1.7434009909629822e-01</internalNodes>
      <leafValues>
        -8.3654069900512695e-01 6.3257403671741486e-02</leafValues></_>
    <_>
      <internalNodes>
        0 -1 9437 -1.2624924420379102e-04</internalNodes>
      <leafValues>
        -4.1865378618240356e-01 9.6588768064975739e-02</leafValues></_>
    <_>
      <internalNodes>
        0 -1 39538 1.7076316475868225e-01</internalNodes>
      <leafValues>
        -1.0656915605068207e-01 4.4162830710411072e-01</leafValues></_>
    <_>
      <internalNodes>
        0 -1 57205 4.7749246004968882e-04</internalNodes>
      <leafValues>
        -1.3947010040283203e-01 3.5713425278663635e-01</leafValues></_>
    <_>
      <internalNodes>
        0 -1 118302 -5.3250274504534900e-05</internalNodes>
      <leafValues>
        1.6169352829456329e-01 -2.6738059520721436e-01</leafValues></_>
    <_>
      <internalNodes>
        0 -1 162257 -1.0878943430725485e-04</internalNodes>
      <leafValues>
        -3.5710492730140686e-01 1.1590185761451721e-01</leafValues></_>
    <_>
      <internalNodes>
        0 -1 131224 -9.1007648734375834e-04</internalNodes>
      <leafValues>
        2.7432608604431152e-01 -1.4431066811084747e-01</leafValues></_>
    <_>
      <internalNodes>
        0 -1 162104 -2.4863749276846647e-03</internalNodes>
      <leafValues>
        -4.8933413624763489e-01 7.7896118164062500e-02</leafValues></_>
    <_>
      <internalNodes>
        0 -1 38924 5.3361758589744568e-02</internalNodes>
      <leafValues>
        7.6390355825424194e-02 -4.5777985453605652e-01</leafValues></_>
    <_>
      <internalNodes>
        0 -1 41848 5.7017773389816284e-02</internalNodes>
      <leafValues>
        -1.8285439908504486e-01 2.6363027095794678e-01</leafValues></_>
    <_>
      <internalNodes>
        0 -1 157944 1.1609259527176619e-03</internalNodes>
      <leafValues>
        -1.1767528951168060e-01 3.7971332669258118e-01</leafValues></_>
    <_>
      <internalNodes>
        0 -1 112505 1.1435110354796052e-03</internalNodes>
      <leafValues>
        -1.4442653954029083e-01 2.7461481094360352e-01</leafValues></_>
    <_>
      <internalNodes>
        0 -1 36645 -4.8654107376933098e-03</internalNodes>
      <leafValues>
        3.8539484143257141e-01 -9.6966885030269623e-02</leafValues></_>
    <_>
      <internalNodes>
        0 -1 480 4.3771630153059959e-03</internalNodes>
      <leafValues>
        9.8297275602817535e-02 -3.9839124679565430e-01</leafValues></_>
    <_>
      <internalNodes>
        0 -1 151634 -9.7793410532176495e-04</internalNodes>
      <leafValues>
        3.4524920582771301e-01 -1.1033567786216736e-01</leafValues></_>
    <_>
      <internalNodes>
        0 -1 162061 -9.4446768343914300e-05</internalNodes>
      <leafValues>
        -4.9380871653556824e-01 7.6410695910453796e-02</leafValues></_>
    <_>
      <internalNodes>
        0 -1 7409 -1.1604532483033836e-04</internalNodes>
      <leafValues>
        -3.6688542366027832e-01 9.5607884228229523e-02</leafValues></_>
    <_>
      <internalNodes>
        0 -1 1177 -1.5511198434978724e-03</internalNodes>
      <leafValues>
        1.2311764806509018e-01 -3.1637689471244812e-01</leafValues></_>
    <_>
      <internalNodes>
        0 -1 89811 -8.7653141235932708e-05</internalNodes>
      <leafValues>
        -3.8254278898239136e-01 8.7396994233131409e-02</leafValues></_>
    <_>
      <internalNodes>
        0 -1 106625 1.8002841621637344e-02</internalNodes>
      <leafValues>
        -1.2482198327779770e-01 3.2855841517448425e-01</leafValues></_>
    <_>
      <internalNodes>
        0 -1 11895 -3.5635153762996197e-03</internalNodes>
      <leafValues>
        -5.1713407039642334e-01 7.3626309633255005e-02</leafValues></_>
    <_>
      <internalNodes>
        0 -1 122394 -3.1999893486499786e-02</internalNodes>
      <leafValues>
        2.6101455092430115e-01 -1.4782565832138062e-01</leafValues></_>
    <_>
      <internalNodes>
        0 -1 5100 -3.3837754279375076e-02</internalNodes>
      <leafValues>
        2.3886571824550629e-01 -1.4821334183216095e-01</leafValues></_>
    <_>
      <internalNodes>
        0 -1 90280 1.0567464865744114e-02</internalNodes>
      <leafValues>
        7.4373789131641388e-02 -4.7417104244232178e-01</leafValues></_>
    <_>
      <internalNodes>
        0 -1 154206 3.5256903618574142e-02</internalNodes>
      <leafValues>
        -1.6697059571743011e-01 2.3693449795246124e-01</leafValues></_>
    <_>
      <internalNodes>
        0 -1 105673 1.0575900087133050e-03</internalNodes>
      <leafValues>
        -1.0924685746431351e-01 3.1914049386978149e-01</leafValues></_>
    <_>
      <internalNodes>
        0 -1 133118 1.2122773332521319e-03</internalNodes>
      <leafValues>
        -1.1493322998285294e-01 3.1738737225532532e-01</leafValues></_>
    <_>
      <internalNodes>
        0 -1 26535 -4.4646286405622959e-03</internalNodes>
      <leafValues>
        3.4016042947769165e-01 -1.0388239473104477e-01</leafValues></_>
    <_>
      <internalNodes>
        0 -1 40373 3.7603050470352173e-02</internalNodes>
      <leafValues>
        -9.0235166251659393e-02 4.3518251180648804e-01</leafValues></_>
    <_>
      <internalNodes>
        0 -1 12534 1.6363181639462709e-03</internalNodes>
      <leafValues>
        6.4933978021144867e-02 -5.3441804647445679e-01</leafValues></_>
    <_>
      <internalNodes>
        0 -1 124265 2.1229891572147608e-03</internalNodes>
      <leafValues>
        5.0869036465883255e-02 -6.1565285921096802e-01</leafValues></_>
    <_>
      <internalNodes>
        0 -1 97700 8.0213863402605057e-03</internalNodes>
      <leafValues>
        -1.0153412818908691e-01 3.4123510122299194e-01</leafValues></_>
    <_>
      <internalNodes>
        0 -1 97696 -3.1820572912693024e-03</internalNodes>
      <leafValues>
        2.3145401477813721e-01 -1.5978014469146729e-01</leafValues></_>
    <_>
      <internalNodes>
        0 -1 26728 -1.7525978386402130e-02</internalNodes>
      <leafValues>
        4.4380459189414978e-01 -7.7916838228702545e-02</leafValues></_>
    <_>
      <internalNodes>
        0 -1 6715 2.1101164747960865e-04</internalNodes>
      <leafValues>
        6.6793516278266907e-02 -5.5363631248474121e-01</leafValues></_>
    <_>
      <internalNodes>
        0 -1 161700 6.7469710484147072e-03</internalNodes>
      <leafValues>
        -7.0229768753051758e-02 5.5766993761062622e-01</leafValues></_>
    <_>
      <internalNodes>
        0 -1 151879 -1.2540735770016909e-04</internalNodes>
      <leafValues>
        -4.0002223849296570e-01 8.9087218046188354e-02</leafValues></_>
    <_>
      <internalNodes>
        0 -1 12764 1.0153281502425671e-02</internalNodes>
      <leafValues>
        -8.6841911077499390e-02 4.2420408129692078e-01</leafValues></_>
    <_>
      <internalNodes>
        0 -1 25172 -1.3264700770378113e-01</internalNodes>
      <leafValues>
        -8.2066756486892700e-01 4.2851265519857407e-02</leafValues></_>
    <_>
      <internalNodes>
        0 -1 49475 1.5984863042831421e-02</internalNodes>
      <leafValues>
        5.0230853259563446e-02 -5.9289264678955078e-01</leafValues></_>
    <_>
      <internalNodes>
        0 -1 121332 3.5887297708541155e-03</internalNodes>
      <leafValues>
        -1.8781493604183197e-01 1.9544741511344910e-01</leafValues></_>
    <_>
      <internalNodes>
        0 -1 80112 -1.1844992404803634e-03</internalNodes>
      <leafValues>
        4.4653645157814026e-01 -8.2081094384193420e-02</leafValues></_>
    <_>
      <internalNodes>
        0 -1 69859 7.8300936147570610e-03</internalNodes>
      <leafValues>
        -8.5167534649372101e-02 4.2288020253181458e-01</leafValues></_>
    <_>
      <internalNodes>
        0 -1 102206 3.0718776397407055e-03</internalNodes>
      <leafValues>
        4.7953274101018906e-02 -8.0767393112182617e-01</leafValues></_>
    <_>
      <internalNodes>
        0 -1 63224 -1.9871693849563599e-01</internalNodes>
      <leafValues>
        7.6003360748291016e-01 -5.6379165500402451e-02</leafValues></_>
    <_>
      <internalNodes>
        0 -1 113554 6.9418258499354124e-04</internalNodes>
      <leafValues>
        -8.7220549583435059e-02 3.4818735718727112e-01</leafValues></_>
    <_>
      <internalNodes>
        0 -1 123403 4.4958731159567833e-03</internalNodes>
      <leafValues>
        6.8278290331363678e-02 -5.2946346998214722e-01</leafValues></_>
    <_>
      <internalNodes>
        0 -1 162288 -8.6390748037956655e-05</internalNodes>
      <leafValues>
        -3.1213369965553284e-01 1.0127125680446625e-01</leafValues></_>
    <_>
      <internalNodes>
        0 -1 132761 -9.2956214211881161e-04</internalNodes>
      <leafValues>
        2.6874354481697083e-01 -1.0970693826675415e-01</leafValues></_>
    <_>
      <internalNodes>
        0 -1 159729 -1.2302256072871387e-04</internalNodes>
      <leafValues>
        -3.9506319165229797e-01 8.2077376544475555e-02</leafValues></_>
    <_>
      <internalNodes>
        0 -1 159729 1.6066423268057406e-04</internalNodes>
      <leafValues>
        7.7587157487869263e-02 -3.9568918943405151e-01</leafValues></_>
    <_>
      <internalNodes>
        0 -1 151517 -3.0908817425370216e-03</internalNodes>
      <leafValues>
        3.0052906274795532e-01 -1.1720541864633560e-01</leafValues></_>
    <_>
      <internalNodes>
        0 -1 9447 3.0956235714256763e-03</internalNodes>
      <leafValues>
        7.1462087333202362e-02 -4.6886330842971802e-01</leafValues></_>
    <_>
      <internalNodes>
        0 -1 75711 3.9119395660236478e-04</internalNodes>
      <leafValues>
        -1.1434067785739899e-01 2.8674286603927612e-01</leafValues></_>
    <_>
      <internalNodes>
        0 -1 49354 3.9918748661875725e-03</internalNodes>
      <leafValues>
        -1.2345273047685623e-01 2.4882552027702332e-01</leafValues></_>
    <_>
      <internalNodes>
        0 -1 60331 -1.5739345923066139e-02</internalNodes>
      <leafValues>
        2.7733939886093140e-01 -1.4400024712085724e-01</leafValues></_></weakClassifiers></stage4>
</opencv_storage>
