<?xml version="1.0"?>
<opencv_storage>
<stage0>
  <maxWeakCount>12</maxWeakCount>
  <stageThreshold>-2.1581733226776123e+00</stageThreshold>
  <weakClassifiers>
    <_>
      <internalNodes>
        0 -1 3325 -3.7417501211166382e-02</internalNodes>
      <leafValues>
        2.0400308072566986e-01 -8.8219398260116577e-01</leafValues></_>
    <_>
      <internalNodes>
        0 -1 152848 2.5766476988792419e-02</internalNodes>
      <leafValues>
        -7.6949292421340942e-01 4.5859906077384949e-01</leafValues></_>
    <_>
      <internalNodes>
        0 -1 77685 4.5731067657470703e-02</internalNodes>
      <leafValues>
        -7.1892231702804565e-01 4.6084108948707581e-01</leafValues></_>
    <_>
      <internalNodes>
        0 -1 38836 -5.4099448025226593e-02</internalNodes>
      <leafValues>
        4.6636807918548584e-01 -6.2768357992172241e-01</leafValues></_>
    <_>
      <internalNodes>
        0 -1 37959 7.6165463542565703e-04</internalNodes>
      <leafValues>
        -7.3926198482513428e-01 3.0735707283020020e-01</leafValues></_>
    <_>
      <internalNodes>
        0 -1 146857 1.2225073296576738e-03</internalNodes>
      <leafValues>
        -2.5148487091064453e-01 5.2311068773269653e-01</leafValues></_>
    <_>
      <internalNodes>
        0 -1 5102 -8.1058638170361519e-03</internalNodes>
      <leafValues>
        2.6630026102066040e-01 -5.0278544425964355e-01</leafValues></_>
    <_>
      <internalNodes>
        0 -1 71424 -4.8294104635715485e-03</internalNodes>
      <leafValues>
        4.3914642930030823e-01 -2.9049101471900940e-01</leafValues></_>
    <_>
      <internalNodes>
        0 -1 158359 9.5521472394466400e-04</internalNodes>
      <leafValues>
        -6.0084831714630127e-01 2.1331731975078583e-01</leafValues></_>
    <_>
      <internalNodes>
        0 -1 51461 -2.0346263423562050e-02</internalNodes>
      <leafValues>
        5.8832848072052002e-01 -2.1474096179008484e-01</leafValues></_>
    <_>
      <internalNodes>
        0 -1 76277 7.3916040128096938e-04</internalNodes>
      <leafValues>
        -2.0191934704780579e-01 5.7827764749526978e-01</leafValues></_>
    <_>
      <internalNodes>
        0 -1 5845 -1.7143802717328072e-02</internalNodes>
      <leafValues>
        2.4828167259693146e-01 -5.1279467344284058e-01</leafValues></_></weakClassifiers></stage0>
</opencv_storage>
